
//<![CDATA[

// a few things don't have var in front of them - they update already existing variables the game needs
lanesSide = 3;
patchesAhead = 48;
patchesBehind = 12;
trainIterations = 100000;

var num_inputs = (lanesSide * 2 + 1) * (patchesAhead + patchesBehind);
var num_actions = 5;
var temporal_window = 0;
var network_size = num_inputs * temporal_window + num_actions * temporal_window + num_inputs;

var layer_defs = [];
layer_defs.push({
    type: 'input',
    out_sx: 1,
    out_sy: 1,
    out_depth: network_size
});
layer_defs.push({
    type: 'fc',
    num_neurons: 40,
    activation: 'relu'
});
layer_defs.push({
    type: 'fc',
    num_neurons: 40,
    activation: 'tanh'
});
layer_defs.push({
    type: 'fc',
    num_neurons: 25,
    activation: 'tanh'
});
layer_defs.push({
    type: 'regression',
    num_neurons: num_actions
});

var tdtrainer_options = {
    learning_rate: 0.00105,
    momentum: 0.0,
    batch_size: 128,
    l2_decay: 0.0105
};

var opt = {};
opt.temporal_window = temporal_window;
opt.experience_size = 20000;
opt.start_learn_threshold = 5000;
opt.gamma = 0.96;
opt.learning_steps_total = 100000;
opt.learning_steps_burnin = 2500;
opt.epsilon_min = 0.0;
opt.epsilon_test_time = 0.0;
opt.layer_defs = layer_defs;
opt.tdtrainer_options = tdtrainer_options;

brain = new deepqlearn.Brain(num_inputs, num_actions, opt);

learn = function (state, lastReward) {
    brain.backward(lastReward);
    var action = brain.forward(state);

    draw_net();
    draw_stats();

    return action;
}

//]]>
    
/*###########*/
if (brain) {
brain.value_net.fromJSON({"layers":[{"out_depth":420,"out_sx":1,"out_sy":1,"layer_type":"input"},{"out_depth":40,"out_sx":1,"out_sy":1,"layer_type":"fc","num_inputs":420,"l1_decay_mul":0,"l2_decay_mul":1,"filters":[{"sx":1,"sy":1,"depth":420,"w":{"0":0.1276205859762231,"1":-0.079787599936168,"2":-0.09318879427176979,"3":-0.050527803765638604,"4":0.13050873976861835,"5":0.15891497330675877,"6":0.1266786339810658,"7":0.09713887403108229,"8":-0.0052771698083469674,"9":-0.06659291224429331,"10":-0.05481721311440387,"11":-0.017436640319979595,"12":0.07996991638429553,"13":0.16425143229471417,"14":0.07581548855889828,"15":0.005910610791417628,"16":-0.08126451582797445,"17":-0.08960433660023616,"18":-0.034816388597368936,"19":0.14538711677915697,"20":0.1250314213030907,"21":0.053144074965635134,"22":0.06951832517831628,"23":-0.04963081855775342,"24":-0.043240083728309335,"25":-0.2195234223532816,"26":0.00007675619278199098,"27":-0.03472801654944824,"28":0.0010387031612451706,"29":0.04121559068737156,"30":-0.0018463423758681406,"31":-0.022789434138851046,"32":-0.13861163336452825,"33":0.04738799279749826,"34":0.002916373972118468,"35":0.018183281675296568,"36":0.006592851285213697,"37":-0.028563338332610738,"38":-0.00896050164796196,"39":-0.01364322998468593,"40":0.17013567311199485,"41":0.03917736031123088,"42":-0.08971090234795956,"43":0.01970658077912552,"44":-0.061598161706427734,"45":0.016451153852771124,"46":-0.07619422888380552,"47":0.020463728648400455,"48":0.04944356426068122,"49":-0.12591655723863582,"50":-0.009342683045676169,"51":-0.005071051202906035,"52":-0.0750736403504625,"53":0.02637659479812681,"54":0.10664127930617884,"55":0.14842366538544635,"56":-0.13296508540038784,"57":-0.044295469580929815,"58":0.024749368142048096,"59":0.01174286503228532,"60":0.013476099661566742,"61":-0.07024475349551226,"62":0.14861821834034722,"63":-0.15438621302713473,"64":-0.06485586135072,"65":0.005092927517290255,"66":-0.04526837826380867,"67":0.02088335081213451,"68":-0.19326170198657314,"69":0.10322819040936476,"70":-0.05581384003433605,"71":-0.08412462396162458,"72":0.04803230848088906,"73":-0.00513223701686754,"74":-0.03845081590350481,"75":-0.05251273151551493,"76":0.008393054162792669,"77":-0.10184471820841447,"78":-0.11732568631818603,"79":0.04165928746587207,"80":0.05497783296551411,"81":-0.05415974540396104,"82":-0.08104172078971315,"83":0.02243644481532977,"84":-0.03225211161796892,"85":-0.043457222161111315,"86":-0.007599477769281873,"87":-0.047822612023945776,"88":-0.03894698373919382,"89":-0.026774142972082617,"90":-0.06337490003154371,"91":-0.04450003277508935,"92":-0.015964585722446866,"93":-0.006357343480708445,"94":0.03310307040965336,"95":-0.03762180002271202,"96":-0.02521639520969526,"97":0.011421710071543184,"98":0.000927699845064283,"99":-0.005775612335031076,"100":0.008108757863124615,"101":-0.03356856488229168,"102":-0.085152198890247,"103":-0.07345668257332406,"104":-0.0017813648129056964,"105":0.09631188506495408,"106":0.08532484096527844,"107":0.04184957417998869,"108":0.05534456836766527,"109":0.023458528884321508,"110":-0.029139549517958684,"111":-0.09019175953955302,"112":0.0028231264050883878,"113":0.049578187780923724,"114":0.10841145806148822,"115":-0.014055051849537984,"116":0.030796002729311264,"117":0.032876671653212425,"118":0.001426046136568934,"119":0.00971857333482402,"120":0.05504803257088488,"121":0.10328767294791616,"122":0.013046532265665715,"123":-0.1254651342122892,"124":0.027379541603421743,"125":-0.09620395931043689,"126":-0.004354122166474281,"127":-0.06508011093509643,"128":0.14870068126644198,"129":-0.06062106485959752,"130":0.06745700764969312,"131":0.03060519844697229,"132":-0.09165245809852814,"133":-0.010619077252692292,"134":-0.08065579546655123,"135":0.17429879162529482,"136":-0.03697667760965401,"137":0.029861422391827142,"138":0.06326009402379434,"139":-0.004396718853634974,"140":0.0165973835767436,"141":-0.11182550826073066,"142":0.04021694959299711,"143":0.0009437590247838683,"144":0.028865061094512742,"145":0.009746324743293434,"146":-0.0816905476783911,"147":0.0224344226885162,"148":-0.09442803335974989,"149":0.028572929736183496,"150":-0.02879477037293283,"151":0.05465331689172029,"152":-0.012109583233624908,"153":0.010134134196061623,"154":-0.031919064083436574,"155":0.03621190174335534,"156":0.008719558532974854,"157":0.07319964190012125,"158":-0.0008778630503175514,"159":-0.02798437997676822,"160":-0.009316262330207272,"161":-0.009395848661984757,"162":0.00942900096509992,"163":0.017357664693008246,"164":-0.0505646479053204,"165":0.02992800258715268,"166":-0.08386618547702387,"167":0.029107510754542282,"168":-0.029036451790967074,"169":-0.0013984189141106847,"170":0.06870748872368573,"171":-0.14645588601397902,"172":-0.0849289841661176,"173":-0.1486485893693485,"174":0.0613179511966036,"175":0.02973262391307767,"176":0.005066028398196135,"177":0.05329662277363974,"178":-0.18414705208539392,"179":-0.013460818220064648,"180":-0.1033900900145945,"181":0.03467165326063612,"182":0.0387470479575143,"183":0.02067108302694268,"184":0.14584142807052258,"185":-0.16305568438731663,"186":-0.011773098431037578,"187":-0.1246889927814239,"188":-0.021364131499314463,"189":0.017944919995607142,"190":-0.0368060845301602,"191":-0.043197628552322904,"192":-0.11356480530117624,"193":0.015693368882494736,"194":-0.013470701959526394,"195":0.006817181465348802,"196":0.10736879989442051,"197":0.019357055792664172,"198":-0.033657370999234916,"199":-0.10122721592196511,"200":0.05730902767328356,"201":-0.03712813032314479,"202":0.06919482693121688,"203":0.09805158428895237,"204":0.03967966152405167,"205":-0.006962692460527301,"206":-0.04875897787520802,"207":0.09052162532711379,"208":0.02404737956876458,"209":0.08891321623495782,"210":0.11335568252859111,"211":0.012216148462622367,"212":-0.1155466454180057,"213":-0.03327945330321767,"214":-0.03709178544653669,"215":-0.0027315149120480933,"216":0.0565875955978008,"217":0.08924558853425255,"218":0.02079022773286404,"219":-0.07839031692457404,"220":0.009672971099556813,"221":0.013101966249974093,"222":-0.05876265249440772,"223":-0.008440246517387796,"224":-0.0006256786076498737,"225":-0.021410067743698434,"226":0.00335356697102817,"227":0.14235841219414322,"228":0.04523568841295446,"229":-0.05183740495602453,"230":0.03830906453633223,"231":0.00039554235906686237,"232":-0.00608803560025716,"233":0.006279219772767278,"234":-0.13603283599175686,"235":0.014324022140087402,"236":-0.021945760186201185,"237":-0.2947780576334005,"238":0.014135030672926993,"239":0.03427637766239513,"240":-0.024293072105633935,"241":0.18369126500249414,"242":0.1295987581734253,"243":0.08412613314030616,"244":-0.10662775907606425,"245":0.033718230367257136,"246":-0.038342508309822484,"247":0.1558582663469896,"248":-0.011943440707427581,"249":0.05453042667305236,"250":-0.16623405977380315,"251":-0.14517198076216772,"252":0.04179378049628208,"253":0.009087136699615412,"254":0.09285359698206137,"255":0.01742696734487723,"256":0.18170948957585212,"257":0.05572354773953352,"258":-0.1041137833599093,"259":0.02868065425293973,"260":-0.000999786931973354,"261":0.12259956039184786,"262":0.28739418407770406,"263":0.14183739777229276,"264":0.011798077776004987,"265":0.11212022303310169,"266":-0.017565092272879654,"267":-0.05860055789355492,"268":0.14943488670317864,"269":-0.07314551017314518,"270":0.05870811697790205,"271":-0.022674654947354732,"272":-0.010307176009122376,"273":-0.016569322098288496,"274":0.04529555746874666,"275":0.20607088934917303,"276":0.21733783545432572,"277":-0.10936813342959625,"278":0.22087875366939222,"279":-0.02617401046497808,"280":0.04143798719829178,"281":-0.008978319608827605,"282":0.20826531021873199,"283":-0.04619491186109662,"284":-0.1879496198449354,"285":0.12674104767640032,"286":-0.155368380999523,"287":0.01675025663721576,"288":-0.09928765772991406,"289":0.05026905415570749,"290":0.06610355417674137,"291":-0.3864599765664569,"292":0.08750363006764504,"293":-0.039596958302563476,"294":0.09620776695840678,"295":-0.062187701449008134,"296":0.06824382082081315,"297":-0.10679273583956643,"298":-0.5622644236537844,"299":0.022067297607510132,"300":0.043432532310991735,"301":0.0706219721780557,"302":-0.06433816211115033,"303":-0.02987849593333944,"304":-0.2000693666215123,"305":-0.30079592303985825,"306":0.04812286819402815,"307":0.19603960734375378,"308":0.051127309044311516,"309":-0.11624530964571045,"310":-0.07887350385208601,"311":-0.022579338877952077,"312":-0.15970651863659746,"313":0.07969898487681379,"314":0.13968828232696467,"315":0.06731107554176628,"316":-0.03982552586497995,"317":0.08933043425816854,"318":-0.06283580490150865,"319":-0.1875684610010578,"320":0.1334762962058325,"321":0.055337264178461805,"322":-0.015183551562829512,"323":-0.14691572010877407,"324":0.009336883408882111,"325":0.07529674910901918,"326":0.01067606529210716,"327":0.07246042196753572,"328":0.015980227547791423,"329":-0.02592906637271393,"330":-0.18131084775118922,"331":-0.13324160260001397,"332":0.04448711681141116,"333":-0.0018230634521571281,"334":0.12351023314882256,"335":-0.08231321115816115,"336":-0.004716225270685709,"337":-0.21886046109252763,"338":-0.12842761846242218,"339":-0.32529455023344545,"340":0.0783975898426767,"341":0.06365326354077323,"342":0.15968799124560218,"343":0.03865076585728089,"344":-0.09518492008397889,"345":-0.17093715087142325,"346":-0.32045799075995557,"347":0.2015580790053692,"348":0.1409836494217676,"349":0.08978767924738235,"350":0.09244961845128989,"351":-0.05472710752272453,"352":-0.10824323604885575,"353":-0.36912943059904196,"354":0.3874925893288939,"355":0.2547971527823817,"356":0.1825500291340766,"357":0.09216602505081231,"358":-0.025604023646220192,"359":-0.20568764661305047,"360":-0.30801271548109005,"361":0.39889986099751573,"362":0.21901098949109196,"363":0.1358405334023535,"364":0.017033385426001902,"365":0.11016955889644955,"366":-0.18106739195640484,"367":0.04099387053126661,"368":0.5755153373415482,"369":0.2931037978092861,"370":0.0177861357498859,"371":-0.018474645219075582,"372":0.01741868497253356,"373":-0.029179839203653607,"374":-0.08632402730148873,"375":0.5326496483966912,"376":0.31454003737239355,"377":-0.033694656403716675,"378":-0.04749205782501016,"379":0.05879416501020055,"380":-0.027848968553790668,"381":0.061378471377966176,"382":0.6600362049136032,"383":0.31457014883746737,"384":-0.04670792687247227,"385":-0.08428099642376444,"386":0.024001382561891976,"387":0.0579485446343624,"388":0.029604968266211385,"389":0.7244968095913312,"390":0.1087132546585938,"391":-0.028620423674896207,"392":-0.08401742538398832,"393":0.06530183732164996,"394":0.05804475553129873,"395":0.036452318663820704,"396":0.5787852089399443,"397":0.06856613510002325,"398":0.04610068876399291,"399":-0.13039702067484038,"400":0.096210575537621,"401":-0.021627670281625436,"402":0.13055247278819557,"403":0.5130856173028578,"404":0.07288259364472363,"405":-0.07407838640940943,"406":-0.0446429369995722,"407":0.06040797946554722,"408":-0.03659815921702142,"409":0.01835113033237827,"410":0.25663499745813034,"411":0.058803610576597554,"412":-0.17080105421702388,"413":0.01688780150576155,"414":0.08186486371250966,"415":0.0100964449921902,"416":0.06232053206565905,"417":0.09370300108962443,"418":0.061565019124682374,"419":-0.15904186946445814}},{"sx":1,"sy":1,"depth":420,"w":{"0":-0.029320086207680476,"1":-0.0037971974923546236,"2":-0.07780161814928557,"3":0.08906516769552834,"4":-0.013707686276912826,"5":0.013638150407450686,"6":0.12290035913913082,"7":-0.01763315199132432,"8":-0.0054287673073190705,"9":-0.0873099871546858,"10":0.10123875315266109,"11":0.03413915482277441,"12":-0.06355043261541106,"13":0.19637435702539652,"14":-0.013438502383744434,"15":-0.011703634258868095,"16":-0.078850350287689,"17":0.05777679112277689,"18":-0.03529597795016917,"19":-0.05305784032623137,"20":0.12491291691605913,"21":-0.023318425181782034,"22":-0.020705110250658187,"23":-0.07588362273082654,"24":0.15101407326784588,"25":-0.040782419023832464,"26":-0.03914666885651543,"27":-0.00267018313504004,"28":-0.019607752830705955,"29":-0.015302531852738277,"30":-0.05142966999756143,"31":0.06012620717509142,"32":-0.04328057201221239,"33":0.031229843733813743,"34":0.026871229599109932,"35":-0.025756672160688724,"36":0.009011335631859805,"37":-0.029237652297584377,"38":-0.06783867940833978,"39":-0.038643447759049154,"40":0.05796178804194453,"41":-0.09596868572835658,"42":-0.04337523697568353,"43":0.020809994959249997,"44":-0.031372221864758146,"45":0.00994416162202634,"46":0.06220655791444397,"47":0.011297334664560114,"48":0.005612679474834566,"49":-0.027044871418830656,"50":0.013361197947995168,"51":-0.03419592031801232,"52":0.026605137339785295,"53":-0.0005615410052329551,"54":0.12532602618959157,"55":0.08856827886146237,"56":-0.022394317926139183,"57":0.009691333016527545,"58":-0.04808981918460338,"59":0.003778025665810546,"60":0.12543686016130437,"61":0.10972276298225436,"62":0.018925719124599477,"63":-0.021071062345081052,"64":-0.0026713110089074663,"65":-0.0602623434086249,"66":0.041646351303221786,"67":0.0685448502707963,"68":0.10724346616575077,"69":0.08539476882043998,"70":-0.02061054023653615,"71":-0.016531750758157368,"72":-0.06355791477765899,"73":0.0112408249736286,"74":-0.013152178626324302,"75":0.1913631433569991,"76":0.05553016621869198,"77":-0.019695519830770617,"78":-0.024709344838050748,"79":-0.025782237173264617,"80":-0.02288946620933997,"81":-0.02403328526747811,"82":0.16466709627664441,"83":0.03938134211080502,"84":-0.021315362736481273,"85":-0.026231547709646932,"86":-0.0362325018620611,"87":0.1164278173073756,"88":0.010210791287463123,"89":0.13043045674244613,"90":0.10045776655636435,"91":-0.021049583765520036,"92":-0.024177849027645696,"93":-0.050795217505178826,"94":0.051822012073059025,"95":-0.09915116483055829,"96":0.11593695225178283,"97":0.10393462121021603,"98":-0.01701273322505196,"99":-0.010196601263257917,"100":-0.06574248558689463,"101":0.14302440709939584,"102":-0.09694572424784,"103":0.12611211445326623,"104":0.10192036648213261,"105":-0.019668555437178905,"106":-0.009785209153724404,"107":-0.10565501081545702,"108":0.07408303535950055,"109":-0.04744707159041281,"110":0.07265274168974767,"111":0.0039054677530364758,"112":-0.016084071134762686,"113":-0.0012164817946877693,"114":-0.08919087083030076,"115":-0.016737547819656973,"116":-0.06394267028632511,"117":0.09631370240527787,"118":-0.02571814934052909,"119":-0.02140568868868382,"120":-0.002106149124000848,"121":-0.07574145455519281,"122":0.08784923731587213,"123":0.016834401379112084,"124":0.12280228892561106,"125":-0.04854843053427847,"126":-0.021380771444410952,"127":-0.00382695130497049,"128":-0.07233989927678475,"129":0.036301060916266704,"130":0.04117369527952066,"131":0.06695220820825361,"132":-0.07003595831706648,"133":-0.033007118371570006,"134":-0.009401328340182232,"135":-0.054137490408788125,"136":0.0804012281785278,"137":0.09962472792546165,"138":0.09704910961403138,"139":0.013874443305768277,"140":-0.015607346320285176,"141":0.009250642948989732,"142":-0.06415522068947173,"143":0.06964764538405348,"144":0.06400837830322123,"145":0.02045060221868996,"146":0.04262817587512752,"147":-0.014691822954672964,"148":-0.002162442828830233,"149":-0.05631508591270344,"150":-0.03190129333390192,"151":0.0035807273643201575,"152":-0.03275755237329947,"153":0.07529954468415645,"154":-0.032410278161752265,"155":-0.004540653937049559,"156":-0.05735491588691844,"157":-0.020951283285081026,"158":-0.04952996426244636,"159":0.04924974927197715,"160":0.1048087156603983,"161":-0.01086170460307508,"162":-0.012659990336689192,"163":-0.054955137684557516,"164":0.05582898067758025,"165":-0.12383265693317481,"166":0.044199297536210366,"167":0.12089526061708815,"168":-0.02008014715280939,"169":0.004749917899158432,"170":-0.06511225759993079,"171":0.005526842849470245,"172":-0.14533255209503698,"173":0.045293719416228374,"174":0.05252693663533054,"175":-0.0171428726631366,"176":-0.0054919630414305325,"177":-0.07244321710720436,"178":0.09659191051991642,"179":0.025658343787170242,"180":0.0591537599389802,"181":0.007241401853757738,"182":-0.01785368367991228,"183":0.0023272201215523824,"184":-0.07559105812781233,"185":0.04479727007617464,"186":0.1467197212508467,"187":0.006328660917116792,"188":-0.039997445837621576,"189":-0.018876211016272935,"190":0.0044191943568586,"191":-0.0510563541628116,"192":-0.00601845651323073,"193":0.07253070035881024,"194":-0.046751494448097,"195":-0.08922178298305898,"196":-0.024735582372650396,"197":-0.004724257985629409,"198":-0.04196399522408801,"199":-0.05623965336713045,"200":0.18976723711660964,"201":0.01810527756426626,"202":-0.049767985150907704,"203":-0.02547900674652242,"204":-0.020896971782014977,"205":-0.04530315940998026,"206":-0.11644116933625645,"207":0.0726232766450112,"208":0.03395790765989792,"209":0.08490988908356706,"210":-0.02057364188014989,"211":-0.01752780929183108,"212":-0.04149756550898033,"213":-0.025057842026803327,"214":-0.022990099902374068,"215":0.05036087309565913,"216":0.11131812957643163,"217":-0.012826496216547995,"218":-0.008296275458850274,"219":-0.042981493942639025,"220":-0.04638302656700633,"221":-0.03755422980070117,"222":0.03134905144668896,"223":0.16526942888826662,"224":-0.01664698514889001,"225":-0.015769622355308054,"226":-0.037453619059824646,"227":0.04265915190740168,"228":-0.14488236802792823,"229":-0.016743737804772597,"230":0.14840778595939172,"231":-0.024531597585145302,"232":-0.005241822597761843,"233":-0.06161996103543736,"234":0.035747045417575445,"235":-0.22538213527556428,"236":-0.028180997657940535,"237":0.10670153562100021,"238":-0.014670428380413394,"239":0.0032207066753074777,"240":-0.05462660290046189,"241":0.03093197079002301,"242":-0.13236048158064656,"243":-0.11230021761865099,"244":0.012002192565162256,"245":-0.022408288547058303,"246":-0.01788035286252037,"247":-0.0901932323118566,"248":0.022467106617958917,"249":-0.05437051273259389,"250":-0.02794324720283495,"251":-0.04010856655889716,"252":-0.025788381766297237,"253":0.0027431423509983186,"254":-0.11466018258325897,"255":-0.009739577415010215,"256":0.010332702467296222,"257":-0.017314178905640267,"258":0.01752948086816407,"259":-0.02239968114077105,"260":0.004626563185452195,"261":-0.08981492442321379,"262":0.09958803552697958,"263":0.05868844873982758,"264":-0.10839101240792241,"265":-0.14190653757432076,"266":-0.024489774056112548,"267":0.00034341220110020476,"268":-0.051551223062300415,"269":0.045873726839395966,"270":-0.018800330783313876,"271":-0.004383250916972727,"272":0.03271493862161353,"273":-0.016838980230206226,"274":0.010948003851536839,"275":-0.0867346771907873,"276":0.12767973599383242,"277":0.07206873928945152,"278":-0.10650457518538621,"279":0.017495782884188026,"280":-0.02660840904055245,"281":0.012995108690124357,"282":-0.05054451070330439,"283":-0.06367011335472574,"284":-0.04602137780359599,"285":-0.21269881245376573,"286":0.08378204925813336,"287":-0.022909700667266376,"288":0.009709595409994616,"289":-0.06425293521859803,"290":-0.10527718628325461,"291":0.18187024139427138,"292":0.042650076759160514,"293":0.07438175517750108,"294":-0.023653824268703397,"295":0.01568404103059254,"296":-0.09807161190637792,"297":-0.1477501050190792,"298":0.26761910204066813,"299":-0.08774553051508135,"300":-0.033932842165082314,"301":-0.025481880798357545,"302":0.021425637789950873,"303":-0.056454720154614814,"304":-0.21173942377299315,"305":0.10057700882408223,"306":0.04851223412804654,"307":0.01646808544067737,"308":-0.044715837158947495,"309":0.008822348178766716,"310":-0.07410772920691455,"311":-0.037848229995249866,"312":0.07680135303972525,"313":0.12035945353569835,"314":-0.09776018022184783,"315":-0.03813144016442424,"316":0.004976258182775009,"317":-0.07626636961880645,"318":-0.04864041335621599,"319":-0.1713154927359335,"320":-0.09160697837612762,"321":0.05837674325212101,"322":-0.021270467767778686,"323":0.010076802658193594,"324":-0.07895360851164515,"325":-0.02558316223823992,"326":-0.20309394814244042,"327":0.00097850522017027,"328":0.006926572284888234,"329":-0.0215296388252339,"330":-0.010404443520448921,"331":-0.059103967185265956,"332":0.008528203246888721,"333":-0.22930579386897337,"334":-0.026821995519964975,"335":0.004788380016363326,"336":-0.023082505269499513,"337":-0.004016524731507572,"338":-0.04140257708694074,"339":-0.32286980798515036,"340":-0.20294021673520465,"341":-0.05730287913809031,"342":0.0433584654172692,"343":-0.016204369499474607,"344":-0.011756809759762146,"345":-0.05821563018571086,"346":-0.28129050571567915,"347":-0.14348763708221798,"348":-0.07762270810103175,"349":0.09301199152895671,"350":-0.023219712929698225,"351":0.00937526649285064,"352":-0.03572724197725718,"353":-0.270721218207849,"354":-0.06897177437865272,"355":-0.10228553165202309,"356":0.04171552092566803,"357":-0.04176238841068622,"358":0.009038515697695162,"359":-0.04722935115978331,"360":-0.27590848089185077,"361":-0.11597033668852527,"362":-0.04326005299145873,"363":-0.06571235510372353,"364":-0.0306394100280296,"365":0.019632424862008835,"366":-0.06393501265429041,"367":0.09608703561361051,"368":0.11812570727702532,"369":0.07749784444750552,"370":-0.07000302093769947,"371":-0.03309752677751543,"372":0.02274260099928936,"373":-0.060102122977567916,"374":0.09180212172191925,"375":0.23493168691806063,"376":0.17282805004353555,"377":-0.01700804076073297,"378":-0.04112830327818828,"379":0.004651574023516942,"380":-0.05416071189714144,"381":0.029032644350114416,"382":0.1793190851815039,"383":0.2557049705319469,"384":0.04594050881901283,"385":-0.024230762698505277,"386":0.00539893777579573,"387":-0.05801964279349192,"388":-0.04920243558310379,"389":0.3325703306787231,"390":0.15228127486356505,"391":0.16445060695324062,"392":-0.027671662600089155,"393":-0.005219745920915058,"394":-0.05522279832382828,"395":-0.020953435753116645,"396":0.17522723682119384,"397":0.11935062959971957,"398":0.12650348899596928,"399":-0.020734971562372428,"400":0.01399901252204959,"401":-0.02724652963882521,"402":-0.09996940579904905,"403":0.13487286805924886,"404":0.1193693783139923,"405":0.1871626101888384,"406":-0.02362201071899037,"407":0.009708835699188694,"408":-0.04053831937722373,"409":-0.08510069924873956,"410":0.0847801582013312,"411":0.015074502485585305,"412":0.09073382428686992,"413":-0.023807847509912997,"414":0.004053041729229745,"415":-0.03301970740297282,"416":-0.10476931081525225,"417":0.10324163102095592,"418":-0.027999369397369713,"419":0.1987846398957195}},{"sx":1,"sy":1,"depth":420,"w":{"0":-0.0720345073110457,"1":0.033743197666437165,"2":0.075713793631181,"3":-0.15692196258203717,"4":-0.018232991787483034,"5":0.21673116404672776,"6":-0.14993867911211067,"7":0.059120247966237355,"8":0.16883270148278248,"9":-0.09545597198950617,"10":0.027785928524625712,"11":-0.004543187284498779,"12":0.10359273228766182,"13":-0.20808089142746358,"14":-0.059528738837552456,"15":0.057107804677212805,"16":-0.08669363087191904,"17":-0.049382313307462136,"18":0.0428890434897522,"19":-0.018258157229754112,"20":-0.03844922767532557,"21":-0.07530732081981704,"22":0.10072881260806439,"23":-0.009416624097005766,"24":-0.2605462344213409,"25":-0.06861072579416731,"26":0.037320095138130255,"27":0.03537383179744984,"28":-0.15264665340035102,"29":0.011008512631712519,"30":-0.08588304597619122,"31":-0.13024776951089614,"32":0.001805187899280067,"33":-0.07737750834820588,"34":0.002889322092957535,"35":-0.09928121107602453,"36":-0.035676111541346714,"37":-0.16839773476825778,"38":-0.12215242803505821,"39":0.003963541133387684,"40":-0.0395448208229963,"41":0.13644510180077965,"42":-0.08651428013602958,"43":0.0488982370644117,"44":-0.0815448450774729,"45":-0.04179926467377178,"46":0.11471956616998455,"47":-0.0666097010019533,"48":0.004338303463442844,"49":-0.126700995989033,"50":0.009194935186658405,"51":0.0014954655822715989,"52":-0.10074682043146042,"53":0.07809169136876369,"54":-0.08790578515566329,"55":-0.13426835328008066,"56":0.009380885494434704,"57":0.0546913037001058,"58":-0.12501455956788907,"59":-0.10826336073160782,"60":-0.04885903138972787,"61":0.032715621514411375,"62":-0.07534309178059388,"63":0.02533967469626831,"64":0.10208626735513956,"65":-0.04686019611552648,"66":0.031731271778454265,"67":-0.09447829747231051,"68":-0.15014418773540375,"69":-0.11965458771455424,"70":0.014351106953922025,"71":-0.0569349171823794,"72":-0.22421552228528102,"73":-0.25262572860460086,"74":-0.025590905412210957,"75":-0.06228103846720214,"76":0.011125263185949558,"77":-0.040527477355628665,"78":0.08118996306426826,"79":-0.006865993830326797,"80":-0.12560393320643373,"81":-0.06850795875857438,"82":-0.05989337258550733,"83":0.04278711601226027,"84":-0.17560529584820792,"85":0.16112527062402526,"86":-0.08325936191935629,"87":0.024058578243477746,"88":-0.035860593468505404,"89":-0.03974139192851454,"90":-0.00014657429394485062,"91":-0.11416696580720359,"92":-0.08773943200964951,"93":-0.14621938817973373,"94":-0.08408890875023274,"95":-0.006262354791975264,"96":-0.030727071488076414,"97":0.02862411040508192,"98":-0.09392268055410957,"99":-0.007496081726659346,"100":-0.06896392153332924,"101":-0.14520412426596346,"102":-0.07508344964431174,"103":0.06814345463314336,"104":-0.07889161539498661,"105":-0.020925832555644983,"106":0.053168194178210226,"107":-0.21695452805365809,"108":-0.08710647299489167,"109":-0.07278122055897769,"110":0.07041110328577589,"111":-0.07416079655487523,"112":0.08191752398665911,"113":0.19277123011043554,"114":-0.23198129434550893,"115":-0.138364511207003,"116":-0.021561198575993243,"117":-0.004575968017708249,"118":0.02046626233824795,"119":-0.05727554185740824,"120":0.21499661281258484,"121":-0.16637794455438187,"122":-0.1801002717543235,"123":-0.09622520301399214,"124":0.08220043590974052,"125":0.06034465504371811,"126":-0.05695371369287905,"127":0.05396423863056834,"128":-0.14465466133741436,"129":-0.08308595511748335,"130":-0.10903347772010913,"131":-0.005501656461889199,"132":-0.024138933793133546,"133":-0.10435551259716914,"134":0.057314620338515546,"135":-0.24280706246705225,"136":-0.09850006384724591,"137":0.06121617087695519,"138":0.012316838060127368,"139":-0.0057330999774029435,"140":-0.04477590245413801,"141":0.07422993871899,"142":-0.18336273372091497,"143":-0.18891907074981887,"144":0.07320633990161138,"145":0.0646796734395164,"146":-0.04712683871922712,"147":-0.08417568635857813,"148":0.09818541720211868,"149":-0.00829572578952402,"150":-0.16936663642612232,"151":-0.04685097004602608,"152":0.06336209674207015,"153":-0.0443795614283649,"154":0.03827083250770121,"155":0.1493064983880667,"156":0.014560225141445728,"157":-0.14892661731786805,"158":-0.12400315780767297,"159":0.1539570184219787,"160":-0.031454203445866566,"161":0.08793623581058432,"162":0.07397951987411543,"163":-0.08039767360946055,"164":-0.0930205757588734,"165":-0.23344739728203195,"166":0.011726602088660651,"167":0.00660410988205438,"168":0.02301579958233718,"169":-0.04787023814046047,"170":-0.028018567014333272,"171":-0.24288816949829986,"172":-0.09443515916850558,"173":0.07247410442945562,"174":-0.051670734579859635,"175":0.07905774884151887,"176":0.049975835253166324,"177":-0.17842543249691437,"178":-0.44284199924239387,"179":-0.03409788720860846,"180":0.07026550050194504,"181":-0.017425769939643725,"182":0.05407478209227942,"183":0.22265429322643623,"184":-0.23296567687450062,"185":-0.13615930991601718,"186":0.0812766347410218,"187":-0.08273718843822044,"188":0.07570682872606545,"189":0.15399735239718962,"190":0.21664260838511046,"191":-0.0753378485607149,"192":-0.2263321494206297,"193":-0.02861445344331723,"194":-0.05160963142155122,"195":0.04855045167878009,"196":0.17578706294883048,"197":0.355031175873244,"198":-0.16450567027421964,"199":-0.24174230952785872,"200":-0.23121405547949309,"201":-0.10367980697601631,"202":0.05506400522395805,"203":0.16773300461064902,"204":0.41509084282529435,"205":-0.13883807173642218,"206":-0.28294228264209964,"207":-0.03624443095011636,"208":-0.15040311125665304,"209":-0.026764839767259428,"210":0.14573495024732225,"211":0.4228626282812449,"212":-0.3398844824140362,"213":-0.26760130141091854,"214":0.00551813002070463,"215":-0.09502614044393262,"216":-0.047279681709142006,"217":-0.011783577441252671,"218":0.4316655972523829,"219":-0.3764027599033398,"220":-0.4504445368441219,"221":0.023056334720383737,"222":0.0051220565207875605,"223":0.04508101515270625,"224":0.1794208037384517,"225":0.39279787891681106,"226":-0.2306123951920785,"227":-0.2852807709808483,"228":-0.03371836032665839,"229":0.04674268912541117,"230":0.0009047523137292583,"231":0.28226551138531214,"232":0.5689215173575343,"233":-0.30450507734063004,"234":-0.29782433919289036,"235":-0.015548954754250971,"236":-0.02124575226217184,"237":-0.08799914753030898,"238":0.04853179579475475,"239":0.519226583677709,"240":-0.40887277843921893,"241":-0.2653530967455312,"242":-0.11895431514478098,"243":-0.011821392532500056,"244":0.021306208443781702,"245":0.12592632169204726,"246":0.5531200598110685,"247":-0.382142764848143,"248":-0.38610812477934886,"249":-0.002000081048128916,"250":0.017870273758293077,"251":-0.05827761919039613,"252":0.11316759222789191,"253":0.6470934105031341,"254":-0.3444257286338327,"255":-0.40994200836379774,"256":0.09069450153579252,"257":0.009768784518369591,"258":0.09838956895774317,"259":0.1835557844183437,"260":0.6198370894728014,"261":-0.285274257063592,"262":-0.12575565380359904,"263":-0.08076841749141253,"264":0.1067459359635193,"265":0.046052289173544245,"266":0.1468918410489825,"267":0.8626267668746972,"268":-0.5411858955796707,"269":-0.28799809411601934,"270":0.05603415837331181,"271":0.05886756524110498,"272":0.03923388533618152,"273":0.28161657583869715,"274":0.8268005084074758,"275":-0.0963125130301903,"276":-0.30958618132355986,"277":0.07437075625027065,"278":0.05627138665397742,"279":-0.0467134325312043,"280":0.11655340416632222,"281":0.8147555647902838,"282":-0.17731463157564778,"283":-0.579832049023342,"284":0.0715177628756942,"285":0.005561234728786905,"286":-0.08802537220839383,"287":0.10553763499167587,"288":0.7854214630112517,"289":-0.04879678052686081,"290":-0.11963735451180049,"291":-0.04152112069003914,"292":-0.09127672251639464,"293":-0.022421090983665015,"294":0.10448153894877515,"295":0.7282508869834496,"296":0.3811946177552591,"297":-0.3208116441439253,"298":0.03321186087233802,"299":0.030813198071391667,"300":-0.10776940808445704,"301":0.16497465835426386,"302":0.8160668093844561,"303":0.24280241731978514,"304":-0.20255193293589777,"305":0.03896828297652582,"306":0.06629933319255872,"307":0.028229432749812444,"308":0.07446149727452438,"309":0.8000268075187681,"310":0.46535264342537924,"311":0.0017186697921511376,"312":0.025418633238218708,"313":-0.004273275836652414,"314":-0.004252845784622593,"315":0.02659850317468669,"316":0.7056410609250281,"317":0.4290298831427586,"318":-0.6657109214527056,"319":0.17980126584539022,"320":0.07330026509145962,"321":0.029782675092331668,"322":0.08425764799946042,"323":0.6531252193451893,"324":0.5789682075569929,"325":-0.4997532836143492,"326":0.08285876091359266,"327":-0.048731531550307614,"328":-0.03735462752401121,"329":-0.05804616433897112,"330":0.4816053927660563,"331":0.40673211587672214,"332":-0.4686783442485,"333":0.06739067657852969,"334":-0.13662100525444254,"335":0.0022840325061992115,"336":-0.10227557802621749,"337":0.28486406074552933,"338":0.45921403531179483,"339":-0.07837188227368633,"340":0.0953795465362125,"341":-0.02386589399606039,"342":0.017966346280623744,"343":-0.08178079832564274,"344":0.290792386166326,"345":0.4126158454019579,"346":-0.06542792879605573,"347":0.1076178692963516,"348":0.0030018108841393986,"349":0.04208719132352498,"350":-0.06523526370305094,"351":0.182350998868357,"352":0.45558347250255093,"353":-0.08558595896546066,"354":-0.022304915438941128,"355":0.028381424744310588,"356":-0.025950765065421547,"357":0.037320029147775186,"358":0.15896795584086834,"359":0.4205492356055619,"360":-0.07812412809243402,"361":0.12712955975780493,"362":-0.08794572473864101,"363":-0.02993772405154608,"364":0.09363845980830973,"365":0.04065200802902226,"366":0.5305544289176645,"367":-0.47671408760107914,"368":-0.11202546768056446,"369":-0.047048877897744465,"370":-0.028184868946556474,"371":-0.2178435875143771,"372":-0.01698898226898492,"373":0.26764738092052054,"374":-0.4605134347099027,"375":-0.0812143613718573,"376":0.034146852840080566,"377":-0.11147382305880087,"378":0.006405772393612064,"379":-0.08841635465351592,"380":0.2377752740525574,"381":-0.41927068103774967,"382":-0.061256404338703746,"383":0.04473988151220722,"384":0.09961371509424889,"385":-0.14703122745447955,"386":-0.18633432034991196,"387":0.10414524963059564,"388":-0.12830504470779713,"389":0.012768796288195728,"390":0.15659815396119803,"391":0.01968127568907837,"392":-0.04792762995757156,"393":0.030831879420440047,"394":0.11016025204895129,"395":-0.19890668685396912,"396":-0.2266736816209936,"397":0.09768112539867987,"398":0.09432338980100359,"399":-0.009692017423271538,"400":-0.02241835667255029,"401":0.06635265282044096,"402":-0.20540650947715156,"403":0.04854707058189765,"404":0.023145720245460095,"405":0.18165231243658628,"406":-0.2130762792142163,"407":-0.10411289129820446,"408":-0.02739396796573763,"409":-0.05697917328881193,"410":0.03956039855428408,"411":0.021453695738961946,"412":0.14361762677141576,"413":-0.21743557678712006,"414":-0.228726103153117,"415":0.03618681410009885,"416":-0.23622118289446992,"417":-0.20212665328544982,"418":0.09740770634532275,"419":0.1679597030142253}},{"sx":1,"sy":1,"depth":420,"w":{"0":0.005487288848467883,"1":0.003619911321562435,"2":-0.0009316496226732744,"3":0.0025549914367493927,"4":-0.004189164241265903,"5":0.00893578245418068,"6":-0.0040974884290578845,"7":0.0036452533668998896,"8":0.0009730925167090417,"9":0.008588455224314272,"10":-0.0024110993865625375,"11":-0.01344481408266482,"12":-0.00581134063575937,"13":0.005583483872011612,"14":-0.00003060027235113441,"15":-0.0017878598098525636,"16":0.003200287052083373,"17":-0.0007846452865867863,"18":-0.00840711262491908,"19":-0.00513268703176694,"20":0.0062949395459604715,"21":0.000036708774420239526,"22":0.006777260792564222,"23":-0.0037970616256128974,"24":0.000048591632086105085,"25":-0.003021241809013425,"26":-0.004903625141928156,"27":-0.0015661569672798254,"28":-0.0003911365499386856,"29":0.0007356230558278003,"30":0.0022405853123303046,"31":-0.00704166353050122,"32":-0.004324422702041385,"33":0.0020531413881504914,"34":0.00029291334043173847,"35":0.004704249642889025,"36":0.003301997746016154,"37":-0.002242138787467715,"38":0.007647502782612002,"39":-0.009906870982078554,"40":-0.002874066244041857,"41":0.005531282095375508,"42":0.004470634833639935,"43":0.01112465233397392,"44":0.0041264842606105415,"45":-0.006527699792048512,"46":-0.010666686404618072,"47":-0.004807634274264167,"48":0.0023010942683460733,"49":0.01140185898961737,"50":0.00709268557673265,"51":0.01292647568835708,"52":0.009156395276975574,"53":-0.003009478931168998,"54":-0.002890071219690322,"55":0.002414918090754661,"56":0.0006973895040680689,"57":0.014144671256128094,"58":0.015679190863792863,"59":0.0021298488398665675,"60":-0.008789560801217535,"61":-0.005970697969172104,"62":0.005088408128179668,"63":-0.003803569850290951,"64":-0.00121962434286302,"65":0.008968445401176106,"66":0.003480999437302848,"67":0.0006933146060102786,"68":0.003141488966784107,"69":-0.00450641098482301,"70":0.008648803644937567,"71":-0.00458280745047891,"72":0.0071158109405298,"73":0.005119511105563139,"74":-0.009295281949498769,"75":0.005891055334946637,"76":0.0007912121653260266,"77":-0.004885722875476907,"78":0.0013469891700766494,"79":0.0037524309001875943,"80":-0.00005374096551446225,"81":-0.0007442569943145815,"82":-0.002591889205498646,"83":-0.005823369990255727,"84":0.007862608080252622,"85":-0.0028695099637103694,"86":-0.0008702012208368109,"87":-0.009863068806084641,"88":0.0019948366829089835,"89":-0.012168333318232232,"90":-0.00205661467685553,"91":0.0010358768603807396,"92":0.0074707803696698275,"93":0.00043080993730292244,"94":-0.008413233428254539,"95":-0.007186033631174392,"96":-0.003597648402100195,"97":0.0015189867594524024,"98":-0.004105726951463038,"99":0.0071897024854094315,"100":-0.00012034275927878216,"101":0.0036617520595881906,"102":-0.008195335805955316,"103":-0.004900745522076643,"104":-0.006376489825028427,"105":0.005859768555364318,"106":0.013134594291874168,"107":-0.006147116472648229,"108":-0.006567823059588985,"109":-0.0019023068046636954,"110":-0.0007202157549034946,"111":0.00282765606660097,"112":0.004740375224169687,"113":0.009900149797099462,"114":0.008824309504918674,"115":0.001011762091360262,"116":-0.005677762519771747,"117":0.0007802778605204415,"118":0.007980931573042093,"119":0.006821371858526826,"120":0.00130665992679345,"121":-0.0032863698428514947,"122":-0.0036107623625814306,"123":-0.003628814140340282,"124":-0.004225981350659168,"125":-0.0001745584243678811,"126":0.012414856665392786,"127":0.006969607493371546,"128":0.0001237444392914883,"129":-0.0065123913973682964,"130":-0.004420535682543643,"131":0.001819555820165019,"132":0.0007191766977017298,"133":0.0055344802672072325,"134":0.006098279740479533,"135":0.0005504786613102351,"136":-0.0007759577663073825,"137":-0.005146494477901184,"138":-0.001810399858914101,"139":0.0030512477503716437,"140":0.004031804260562756,"141":0.005648588588150938,"142":-0.0004549162329490932,"143":0.0008145666782511083,"144":-0.0014938073134294118,"145":0.00141745469293892,"146":0.008056348683969221,"147":0.0007647226783578416,"148":0.013740113887938145,"149":-0.0052885650750139875,"150":0.005962537874595254,"151":-0.007458387978660897,"152":0.00360799476595192,"153":0.003135882180547429,"154":0.005310543502802239,"155":0.00238193903705451,"156":0.007625230872704563,"157":0.008635963763139517,"158":-0.004076313073129925,"159":0.00428618312840862,"160":-0.0003575495243066613,"161":0.005964838877872134,"162":0.006972427775700217,"163":0.005843155548074099,"164":0.004699925911444942,"165":-0.0015356132350383249,"166":-0.0005924901264269621,"167":-0.006053965883473125,"168":0.0009334907237206604,"169":0.0043043101984150175,"170":0.002182120368360689,"171":-0.0019248263842422278,"172":-0.002136856936274457,"173":-0.006069317973660015,"174":-0.0016662163159796195,"175":-0.002870529873973171,"176":0.0013070836213547226,"177":-0.0007933291272912669,"178":-0.01046417903301323,"179":-0.000786692564458027,"180":-0.00764758326980059,"181":-0.008003265662822324,"182":0.002708870416142796,"183":0.004929113482360563,"184":-0.000850089460398099,"185":0.0043904117071289685,"186":-0.007474461037145901,"187":0.008100233026607041,"188":-0.005939382285155089,"189":-0.004093101342015054,"190":-0.0032217246505576533,"191":-0.0038718876141610346,"192":0.007564878030944919,"193":-0.007009053918581561,"194":-0.005705279490417196,"195":-0.0023993771978262574,"196":0.006331953061537518,"197":0.011782596402863568,"198":-0.002762138053909794,"199":0.005300396982429903,"200":-0.0032230643938856475,"201":-0.010217528323329153,"202":-0.00035183662062652837,"203":0.005323729616572544,"204":0.014642841722559308,"205":-0.011430339441552879,"206":0.007488852608394216,"207":-0.00031684840631450765,"208":0.00023291461344751428,"209":0.0006014326912937579,"210":0.0020685271119225235,"211":0.00943813997135106,"212":-0.008933654703690655,"213":0.01369443504182089,"214":-0.01059900729791176,"215":-0.007137415770510105,"216":0.0007857478338368993,"217":0.007311935669172874,"218":0.0017566159687940315,"219":-0.006071882510072547,"220":0.0028143047578980318,"221":-0.0058622196471300216,"222":-0.002763690210843638,"223":0.006136646037889738,"224":0.0014138989443241508,"225":0.012492771332517522,"226":0.0023968552197110005,"227":0.006820738150136985,"228":-0.012722005707779527,"229":-0.0012449145937987527,"230":-0.007678510909781074,"231":0.009843135761014917,"232":0.010241433046243508,"233":-0.0000755600311826418,"234":0.011923765556952553,"235":-0.005395130717918479,"236":0.002985189662473197,"237":-0.0035610169494842787,"238":-0.0006931740783523054,"239":-0.006890869886918451,"240":-0.00024865876675796015,"241":0.016307481642886534,"242":-0.015100753970936355,"243":0.006868094938180775,"244":0.002038633612776139,"245":0.009531260545719084,"246":0.0011265414146289956,"247":-0.00821247972612971,"248":0.013717189195799347,"249":-0.006172941608231203,"250":0.004743951530924066,"251":0.0018181176009811578,"252":0.005274396336811878,"253":-0.005262719565936653,"254":-0.01071728627850115,"255":0.012789325393814104,"256":-0.0024723883754269233,"257":-0.00011861750181511075,"258":-0.0010693012514209816,"259":0.004960888612365705,"260":0.005509922550557531,"261":0.002068276247028881,"262":0.006381026423064737,"263":-0.006575546173325275,"264":-0.012253403132789322,"265":-0.0015900443800538192,"266":0.005403847289535311,"267":-0.0031999853334648463,"268":0.006338579873925093,"269":-0.0038453850235944517,"270":-0.008954436124329328,"271":-0.00767256924430392,"272":-0.0054622367690008505,"273":0.002732057790118366,"274":-0.0018707037179609015,"275":0.008268975782759124,"276":0.002074975508613141,"277":-0.004391091008630952,"278":0.0014579719732411573,"279":-0.012410808001609456,"280":-0.003889812781781094,"281":0.002967696517757136,"282":0.005927255309001874,"283":0.00005026237121080625,"284":-0.006315541611250387,"285":0.002983444532668959,"286":0.004191713180288988,"287":-0.0021913566009392513,"288":0.0005105955850347861,"289":0.004803943839740853,"290":0.00008053467784704203,"291":-0.005141468116270674,"292":0.00480292129035944,"293":-0.005894323519422082,"294":-0.002549765863694788,"295":-0.004103300734055275,"296":0.003999331958262771,"297":-0.0012539953065549812,"298":-0.014417737230549841,"299":0.014734568153705116,"300":-0.0006112911421473894,"301":-0.0021664771604474804,"302":0.002472605816715738,"303":-0.0011203127839473457,"304":-0.0027129005651385053,"305":-0.004746532843723033,"306":0.0033002748486285587,"307":0.0028599839403795923,"308":-0.0005540598882480799,"309":0.009351371981832649,"310":-0.006406245833821052,"311":-0.0006440560005565382,"312":0.0008071488221130852,"313":-0.004554989554079222,"314":-0.004881320335318669,"315":0.0031805716842162168,"316":0.001997005566333294,"317":-0.00611553884677017,"318":-0.004736462148993298,"319":-0.012752340171658893,"320":-0.00810754571026054,"321":0.0025793301850966033,"322":0.005054749574021601,"323":-0.010490973299058693,"324":0.0018474874627438156,"325":0.0039428065372516695,"326":-0.00632671577010821,"327":-0.00033710522753284373,"328":-0.0024845748758485224,"329":-0.008402152209833041,"330":-0.0031907445676676335,"331":0.0037860243160841474,"332":-0.001337633712434743,"333":-0.008806132229038567,"334":-0.00007476062028685439,"335":0.003221631419295916,"336":-0.0041655471014863015,"337":-0.00531535469119123,"338":0.014275161612818192,"339":-0.008657730649186707,"340":-0.010249548988104503,"341":-0.005949926995078887,"342":0.008912424572720349,"343":-0.006399320745161607,"344":-0.006472885716872504,"345":0.0024114766429342823,"346":-0.012824389117141354,"347":-0.012058519409380065,"348":0.00877416337320279,"349":-0.0027966162569219443,"350":-0.0014079502789398047,"351":0.0022919575911525144,"352":0.0030192499089623675,"353":-0.007456483883126814,"354":-0.0021506165200148777,"355":-0.000789912300467765,"356":-0.001986037190942379,"357":-0.011709563531244527,"358":-0.003537700957317925,"359":-0.005253783903064362,"360":-0.01202226865671347,"361":-0.007762810178315247,"362":-0.001588104118685259,"363":0.002751450804783197,"364":0.003297915890199245,"365":-0.005298462300871554,"366":-0.011517270064344875,"367":0.0019873392331644537,"368":-0.0020328404804800374,"369":0.001372670091175559,"370":-0.007126702733400765,"371":0.010492825113083496,"372":-0.0040352649576607625,"373":-0.009713948513142001,"374":0.0008695344351269353,"375":-0.009765507879221908,"376":-0.004455278009645675,"377":0.0025831581012783966,"378":0.0001621979463036072,"379":-0.008113240341002217,"380":-0.012007633198947005,"381":-0.0006037587890270388,"382":-0.006006611015188858,"383":0.0007014016629365618,"384":0.0009999577243523037,"385":-0.004431352931661716,"386":-0.010582123174183644,"387":-0.0031406014849089986,"388":0.00002994922296296273,"389":0.0036791856708811095,"390":0.000016603349967719087,"391":-0.010112082466413898,"392":0.007790478083365834,"393":0.00018529403933574383,"394":0.013684020944056513,"395":-0.009089026769868397,"396":-0.012273644287617723,"397":-0.00663892761326706,"398":0.0006308930168232386,"399":0.0017048803247632376,"400":0.001233882080228567,"401":0.0027971612168082864,"402":-0.009588505054375784,"403":0.0014558045451255675,"404":-0.0007843007018811434,"405":-0.0015708256167616542,"406":0.0030647406371191615,"407":-0.000495194891892115,"408":-0.004067774241461888,"409":-0.0016951394074460708,"410":0.0016183231270987116,"411":0.00021688054975575882,"412":-0.0009860913945264737,"413":0.005313886373766311,"414":0.006160879310639704,"415":-0.003721251992148013,"416":0.005082065180624618,"417":-0.0006451245510654986,"418":-0.00366790275245943,"419":-0.004265505870741396}},{"sx":1,"sy":1,"depth":420,"w":{"0":-0.022764446009518033,"1":0.0000386807885085948,"2":-0.004040452870417306,"3":-0.044537578946305716,"4":0.03292121163955322,"5":-0.03877381479287084,"6":0.09384110963207766,"7":-0.003834064523718569,"8":0.018362933043192718,"9":-0.011772669149546538,"10":0.005050250873812885,"11":0.07614892668751609,"12":-0.0011131943063417084,"13":0.09043435847117673,"14":-0.016862037232555648,"15":-0.02186329847218051,"16":-0.01283795407251422,"17":0.013363063627758425,"18":0.06037453432788486,"19":0.0037857760614885914,"20":0.10447426828798406,"21":-0.018046781053660317,"22":-0.038902540775791104,"23":-0.01832534435075005,"24":-0.03922318717667112,"25":0.05796412229492053,"26":0.024580472517372873,"27":0.08137844173162503,"28":0.001964359516723658,"29":-0.01602506582283472,"30":-0.03074127176687479,"31":-0.08289354860487333,"32":0.03813925162601185,"33":0.0339316731408151,"34":0.003245071124246894,"35":-0.011302493854323184,"36":-0.006055953697655994,"37":-0.017478127190334078,"38":-0.0660358000052369,"39":-0.047131773723307555,"40":0.04333430095241258,"41":-0.03140467561307947,"42":0.0003890592478162611,"43":0.01455351652009179,"44":-0.00906911980669518,"45":-0.08896425647764447,"46":0.015215550581063192,"47":0.05446019037817595,"48":0.03006574963774823,"49":0.001440103903945851,"50":0.04303409992036022,"51":0.0024484856162889004,"52":-0.03721001637349789,"53":-0.0035838532747582714,"54":0.03380224885054568,"55":0.01738224371136076,"56":-0.00773512419713794,"57":0.08146318292549637,"58":-0.009852410764848179,"59":-0.021852033368217037,"60":0.043105401823757564,"61":0.04132431809488542,"62":0.01695026713368194,"63":-0.010170417305977782,"64":0.05402110156182461,"65":-0.015750557149688014,"66":-0.05421496668336081,"67":0.07804128159523063,"68":0.013652874426889137,"69":0.01659185281807863,"70":0.0003580471038439492,"71":0.0820045981403515,"72":0.01119084747297384,"73":0.023751143750189444,"74":0.04373595137452944,"75":-0.012445574082076286,"76":-0.03814901724401712,"77":0.0007022561958243762,"78":0.04255278465870497,"79":0.031217920018293967,"80":-0.04726468606888342,"81":0.03844311667358231,"82":0.011635841051382316,"83":0.011663234693326842,"84":0.005645169650419132,"85":0.045886346410652916,"86":0.0397272276735008,"87":-0.04170473849905898,"88":-0.009987456926776874,"89":-0.05518857359588664,"90":0.026735342978526637,"91":-0.00766332390807679,"92":0.017144157860334998,"93":0.06879538986054934,"94":-0.02053716669359039,"95":-0.023209252584928744,"96":-0.006934229363848146,"97":0.01776373776629701,"98":-0.028902572360905328,"99":0.015314764853788498,"100":0.02013453134749485,"101":-0.07870475329549938,"102":-0.06825256733608423,"103":-0.05005573155615886,"104":0.02695731287938056,"105":-0.016224838925572003,"106":0.022658663697720762,"107":-0.022993811327840497,"108":-0.02193877154024001,"109":-0.06305644675816904,"110":-0.06463403946039283,"111":0.029541414046247823,"112":-0.00582859448746161,"113":0.0089618913601511,"114":-0.03327591485872017,"115":-0.021417847057161328,"116":-0.040292489448520874,"117":-0.004739109248276923,"118":0.06532471657524963,"119":-0.009965651397335398,"120":0.029816344760657306,"121":-0.045165425028324435,"122":0.0025503911332438838,"123":-0.0140314802463723,"124":-0.03836787404077915,"125":0.08336642171019418,"126":0.038961356019504116,"127":0.03785861537523691,"128":-0.004611305963279759,"129":0.0010175670596532273,"130":0.009249342049995968,"131":-0.023888420572812805,"132":0.05467043748431344,"133":0.013562155053597784,"134":0.05122392882868758,"135":0.0011511870775528141,"136":0.009378958831181965,"137":-0.025968584878290183,"138":-0.056722527988538274,"139":0.05792669226547932,"140":0.017434278199002094,"141":0.05479940759770612,"142":0.01463616351452314,"143":0.021146784324843286,"144":-0.012296297812323236,"145":-0.019737711918849394,"146":0.03472628394406785,"147":0.030758100036290034,"148":0.034842868979512144,"149":-0.007934568014301747,"150":0.02189145733460641,"151":-0.04189955628470504,"152":0.01533110165521403,"153":0.024964949813126625,"154":0.0016525727434776722,"155":0.01278537319250885,"156":-0.031974088300020076,"157":0.010847323534299784,"158":-0.0688138115167278,"159":0.003911155389108203,"160":0.08028866284932552,"161":0.010038336000518377,"162":0.020491125941477065,"163":-0.01175109811733833,"164":-0.04374064947187725,"165":0.0042363129490100935,"166":0.0953098084111798,"167":0.0993805789763353,"168":0.018372387752765958,"169":0.01761031724861196,"170":-0.023882250378512236,"171":-0.03324588725885887,"172":-0.0689399695205889,"173":0.1158910906174558,"174":0.1090909398658834,"175":0.000058456594804810275,"176":0.039720318508852395,"177":-0.04875841717436756,"178":-0.05808919836505697,"179":-0.060912093636087274,"180":0.061616354388999726,"181":0.09497069774108384,"182":0.006233980524168953,"183":0.007258460194355373,"184":-0.058224851781723215,"185":-0.0444349814752072,"186":-0.030475083143725944,"187":0.0639779481334794,"188":0.05327093560625891,"189":-0.001346671605934948,"190":-0.009499412238491144,"191":-0.09105840129753981,"192":-0.026492070500643783,"193":-0.07839398775815423,"194":0.04622319180407351,"195":0.03247788715970745,"196":-0.03356220804392711,"197":-0.011185833835839334,"198":-0.05371669695434049,"199":-0.04348267704589387,"200":-0.01990061059812592,"201":0.006554720154840211,"202":0.030664795210658267,"203":-0.040489321368916885,"204":0.008205316895346907,"205":-0.035711851369945695,"206":-0.023255410405027092,"207":-0.05488049096515734,"208":0.05292414806644162,"209":0.08870989471016204,"210":-0.054118429553443016,"211":0.0434576115617763,"212":-0.0294779183956583,"213":-0.041760826275136435,"214":-0.04386558076950436,"215":0.015337502932683735,"216":0.0878310201663237,"217":-0.06312130075946566,"218":0.07231578213139034,"219":-0.014427701014316095,"220":-0.016423875235122745,"221":0.01704140440163604,"222":0.011259149704401512,"223":0.06585948962736345,"224":-0.03772343337700361,"225":0.07521562270607267,"226":-0.050111631130567366,"227":-0.01986377984408886,"228":0.04775881506045292,"229":0.00493337020352925,"230":0.043084471036962724,"231":-0.005869654387699606,"232":0.06833656045554388,"233":-0.013269983031839443,"234":-0.0948506375204009,"235":0.08208151185314545,"236":0.018478514088539375,"237":-0.002826796277550184,"238":-0.017921324494508815,"239":0.045589483465597255,"240":-0.04668057150218874,"241":-0.04294993810997012,"242":0.13831141522894172,"243":0.12643752292981103,"244":0.029366174847550924,"245":-0.0022870723065914894,"246":0.020778232510730008,"247":0.028992681424581862,"248":-0.06472504325349233,"249":0.10527366305621466,"250":0.15199171493541147,"251":0.024024234850640393,"252":0.003273040224230251,"253":-0.015001906478855123,"254":0.09512962167543171,"255":-0.0392046214625191,"256":0.02226200880700284,"257":0.12084876938729801,"258":0.07918485557302375,"259":0.0029609696950442196,"260":0.010291941041883797,"261":0.07332173058041108,"262":0.023277510289696504,"263":0.05646316855391538,"264":0.0487084315172561,"265":0.08806028805108218,"266":0.0005336273265428484,"267":0.03969609573692132,"268":0.16640015123893223,"269":0.04796905109246389,"270":0.05957318621173554,"271":-0.015717759325136044,"272":0.02329096256405016,"273":-0.010124136335792639,"274":0.09052971836438235,"275":0.12348417306593404,"276":0.04886990870154268,"277":0.0517866690078655,"278":-0.05429107228386694,"279":0.06719495238660077,"280":-0.014921540777670049,"281":0.08708789052993215,"282":0.059393478432970714,"283":0.0435329154296554,"284":0.04142205748991047,"285":-0.016687235432681753,"286":0.03152787691540425,"287":-0.005053783523189148,"288":0.05305969577950361,"289":0.014845978416660913,"290":0.034085774574650764,"291":-0.052092191779143274,"292":-0.0604489802521968,"293":0.03332073066292282,"294":-0.00869360723132126,"295":-0.034519384319863775,"296":0.012697432136276377,"297":-0.007657115996585243,"298":-0.13470845453712077,"299":-0.022940634936239778,"300":0.07846074093066695,"301":-0.002003434939650353,"302":-0.06533990187907561,"303":0.06142105053167716,"304":0.000018865627210837822,"305":-0.20872188517722515,"306":-0.048280924154801425,"307":0.08680611080205779,"308":-0.025212747463369548,"309":0.004179818686567187,"310":0.038889547462884665,"311":-0.02158681025033624,"312":-0.12465845083896213,"313":-0.1104885328816352,"314":0.041054832969903914,"315":-0.027781447150002237,"316":0.012777854393992533,"317":0.05345828329853402,"318":-0.031281854316854096,"319":-0.11426440351005289,"320":-0.09049342147321171,"321":0.046001751151567905,"322":-0.04604391772388235,"323":0.052989399896031714,"324":-0.00011682605440567628,"325":-0.021609675554346862,"326":-0.06053722594634741,"327":-0.09592731097750971,"328":0.0978756003878117,"329":-0.03565906332903613,"330":0.06484989949669938,"331":-0.011133445132346346,"332":-0.023025130100819684,"333":0.07197907616022405,"334":-0.0400091518033885,"335":0.0423367654207411,"336":-0.00253853201852317,"337":0.01013192805089929,"338":-0.030830221368780945,"339":-0.11934580542907657,"340":0.045047116028845785,"341":-0.020393452007288874,"342":0.07673523831688642,"343":0.0003799438718252842,"344":-0.007998565846707386,"345":-0.06701648653191328,"346":-0.09491617066653625,"347":0.04833817884679187,"348":0.05921717033372723,"349":0.04760235654558445,"350":0.031151246548644738,"351":-0.04766786667069137,"352":-0.041770289823058256,"353":-0.09542609480286997,"354":0.031637441225522867,"355":0.05447656845989821,"356":0.0534131701659225,"357":-0.01012850445414111,"358":-0.023497618381816673,"359":-0.019279286395946695,"360":-0.11410265195969203,"361":-0.04171752813251743,"362":0.06775606896600989,"363":0.05057712792721343,"364":-0.01656691973295066,"365":-0.03768903826108247,"366":-0.02639154720030849,"367":0.013998726865267696,"368":-0.04341251209109424,"369":0.07229964938665369,"370":0.08572993164688462,"371":-0.015393372044017351,"372":-0.04702430730557567,"373":-0.022584493189920275,"374":0.0126372553170526,"375":0.0605285062497557,"376":0.044920148727703016,"377":0.11784683896409606,"378":-0.02376784766224211,"379":-0.011665375695617103,"380":-0.03156071801529613,"381":0.01656810018854567,"382":0.07811325449925391,"383":-0.00740091709015446,"384":0.07339776060492084,"385":-0.019055347275788007,"386":-0.004166743356717331,"387":-0.06861403141722518,"388":0.03943934002312171,"389":0.07462279838334246,"390":-0.06255104300527463,"391":0.10031738489845066,"392":-0.01901161151617168,"393":0.006301346244369476,"394":-0.04614306896262966,"395":0.016435493543454457,"396":0.045331680879681306,"397":-0.09467516495737797,"398":0.10028909886698842,"399":-0.03155683533642966,"400":0.004450219427386087,"401":-0.05647628596496299,"402":0.009857962914209829,"403":0.06359217586095225,"404":-0.09034340009372328,"405":0.014044898397299993,"406":-0.04003827256731058,"407":-0.0004435787239329926,"408":-0.11014345760212574,"409":0.030551664919671373,"410":0.01346908987784741,"411":0.008488303793407493,"412":0.04435973116664872,"413":-0.007740170961738012,"414":-0.027971659925647048,"415":-0.12038777998811397,"416":0.04737638623576636,"417":0.061758376811713506,"418":0.03210312221363967,"419":0.021796794176465982}},{"sx":1,"sy":1,"depth":420,"w":{"0":-0.01898300143623539,"1":-0.0028699490367429664,"2":-0.03795507654481576,"3":-0.2669310668840418,"4":-0.032503374707116665,"5":-0.07472526124076154,"6":-0.09556958464950673,"7":0.01130168385087248,"8":-0.16774308271964847,"9":-0.08252022493087818,"10":-0.0920708601656351,"11":0.023401398786299495,"12":0.0179550337897189,"13":-0.08974778385655595,"14":-0.19837202424776001,"15":-0.1168193775290978,"16":-0.07574421163478437,"17":-0.09677948127315897,"18":0.06983644001179268,"19":-0.0031040225989322112,"20":0.0031284763247440184,"21":-0.0013578819838846548,"22":-0.02636528986410171,"23":-0.10181314272315221,"24":-0.20650007573921697,"25":0.06912164964312507,"26":0.01615253430942667,"27":0.015768560456772347,"28":0.006151368536583434,"29":-0.06623020036343187,"30":-0.10711616178678819,"31":-0.16186718830770672,"32":-0.021850356793658796,"33":-0.2689466621869956,"34":-0.016743853312646703,"35":0.03263323646363322,"36":-0.10275813192695027,"37":-0.08057006930615415,"38":-0.2036478446062224,"39":0.10230946962519878,"40":-0.04493758543618259,"41":-0.29522597734146633,"42":0.003699272615586737,"43":-0.008891362704102113,"44":0.028796931397207313,"45":-0.15021512810987483,"46":-0.029223846046968812,"47":0.1069478875144436,"48":0.054323812849649725,"49":-0.02440197342191295,"50":-0.08151956110801263,"51":-0.04452080813018026,"52":-0.09280615835706295,"53":0.07937581632375475,"54":0.09726913055665726,"55":-0.0025218116031161543,"56":0.010465624820088837,"57":-0.12114864916126626,"58":0.07021631855424577,"59":-0.0810957290496065,"60":0.06886940031706247,"61":-0.09867445242965646,"62":-0.08063027877223881,"63":-0.061135067322312324,"64":-0.0060230029263557425,"65":0.10170257757427337,"66":-0.18606904873904906,"67":0.1180276819704705,"68":0.035487419654767274,"69":0.011389168969888237,"70":-0.03398547267082314,"71":-0.18877149561902357,"72":-0.20936990680404524,"73":-0.061155629817922365,"74":0.08769979937797068,"75":0.04698117988023242,"76":-0.1649840958156182,"77":0.10833865478541935,"78":0.06693375940237682,"79":0.0827471269624173,"80":-0.09377205760192994,"81":0.16583593486395903,"82":-0.06028282539230844,"83":-0.07850478061928835,"84":0.03737820945762381,"85":-0.048080773608860615,"86":0.11695266499157998,"87":-0.20131259302905208,"88":0.17266754275493007,"89":0.0216572360643848,"90":0.010913566085253153,"91":-0.05990569024364543,"92":-0.1230769663798771,"93":-0.04148855618223326,"94":-0.17675634971801604,"95":0.0336716527797795,"96":0.041821374037490346,"97":0.17056233811479946,"98":-0.030719453237100607,"99":0.08183527142649687,"100":-0.026564943215127913,"101":-0.1801218013069747,"102":0.1413162055965127,"103":0.09789362233728373,"104":0.01279616342936724,"105":0.0567957980991381,"106":0.05998062311972771,"107":-0.07035619111469092,"108":-0.20096527451271398,"109":0.16232955957649922,"110":0.14548340489758507,"111":0.14977931381632126,"112":-0.14702398941786066,"113":0.04378181057390509,"114":-0.07284614601969487,"115":-0.23980614064819775,"116":0.17982156699903046,"117":0.04464055373690237,"118":0.065144703509423,"119":-0.034071003851639595,"120":0.04116581288007552,"121":0.025536829365463334,"122":-0.15454726129980492,"123":0.13043812933773774,"124":0.060091445113652185,"125":0.05599811423098662,"126":-0.0006966241265184154,"127":0.16987967499484305,"128":0.07606454790874215,"129":-0.13957579233518805,"130":0.1797528727492934,"131":-0.017477425111848025,"132":0.011255992953582141,"133":-0.04841401926953127,"134":-0.013315457575190188,"135":-0.011202556961459794,"136":-0.12527251167595457,"137":0.15231470761723623,"138":0.09731111664792846,"139":0.059869744331701044,"140":-0.08709984931155837,"141":-0.03418051989089302,"142":0.043761362008660355,"143":-0.13921350397696391,"144":0.04738529427706374,"145":0.04151350113891551,"146":0.04953929034732836,"147":-0.015120849464427495,"148":0.08926788583574234,"149":-0.014978976740233928,"150":-0.06335071742900628,"151":0.3191992715780376,"152":0.07649492524594136,"153":-0.018828310026095398,"154":-0.057847221080169216,"155":-0.05763602461903264,"156":-0.05978460399549085,"157":-0.1341818735834414,"158":0.14806469647421205,"159":0.1629367447484932,"160":-0.061164770893621996,"161":-0.09802410616295289,"162":0.021284584325661594,"163":0.04300346952372106,"164":-0.01782145250540946,"165":0.26578770540021857,"166":0.14087412379832667,"167":0.027702966869480292,"168":0.023503202129057123,"169":0.0004767475594942992,"170":-0.08330191007170601,"171":-0.11448704649077845,"172":0.320136154413698,"173":0.029578473919500362,"174":0.03608678383755525,"175":0.1070713158936022,"176":0.004665338790675634,"177":-0.13016627808154005,"178":-0.053889270727831236,"179":0.4721937535125507,"180":0.2029013944252874,"181":0.08784064243216051,"182":0.12912914404800502,"183":-0.003752048215276709,"184":0.017950742146054254,"185":-0.1663373684042924,"186":0.34416208356371614,"187":0.06547557753684134,"188":-0.03749136301283582,"189":-0.011117024871623618,"190":-0.0065337517535422425,"191":0.025781832727849865,"192":-0.19464648735059153,"193":0.5028866502154079,"194":0.1379515259353082,"195":0.05865612755716947,"196":0.1876707280204889,"197":0.11959465832738977,"198":-0.16860701067576594,"199":-0.15446770744384913,"200":0.6648013545951499,"201":0.18992068340292198,"202":0.06989661669197114,"203":-0.0172589263891297,"204":0.052137500032735984,"205":-0.0033140445327564704,"206":-0.013938406678521018,"207":0.5576209063418955,"208":0.14528684369237482,"209":0.04973462665370915,"210":0.0016029768344043818,"211":0.12746221105676225,"212":-0.06652132702240708,"213":0.05730573788982319,"214":0.6249155532862298,"215":0.050967179118540394,"216":0.09501677669862497,"217":0.05021041681298612,"218":0.04781204811952782,"219":-0.04352247305336622,"220":-0.12225820276122136,"221":0.8696213087031813,"222":0.19432202671785784,"223":-0.041238423524065766,"224":0.059359153771390685,"225":-0.06231788979646698,"226":0.02247213246689657,"227":-0.17742627044713485,"228":0.8696559875364027,"229":0.2311030462778078,"230":0.02528176675043189,"231":-0.03542847626422135,"232":-0.07937949406666361,"233":-0.11099710010919665,"234":-0.12574620796944336,"235":0.7446139139970106,"236":0.13471673246665322,"237":-0.012006497989020508,"238":0.00930907747169655,"239":-0.028841239835693065,"240":0.12918835554233168,"241":-0.029652521787465594,"242":0.906610209254772,"243":0.16288860376234424,"244":0.13078653666530543,"245":0.0028582318852519058,"246":0.05591096422898037,"247":-0.11390729414213194,"248":-0.17098159895853002,"249":0.9152897054390883,"250":0.08365374530374742,"251":0.06135304662220844,"252":0.018015428829124484,"253":-0.14747155364938438,"254":-0.02439239138587281,"255":-0.24453904375757252,"256":1.1747796154866064,"257":0.17277268200508486,"258":-0.02896621572908805,"259":0.00783310634067169,"260":-0.12211220549007377,"261":-0.18066288691221294,"262":-0.3678097386560721,"263":1.1656978236443971,"264":0.09691684698249636,"265":-0.0042060465418541524,"266":0.0311473731700347,"267":-0.15253057616381774,"268":0.02373533935663859,"269":-0.19363020357361208,"270":0.8954739411948087,"271":0.11849471557320755,"272":0.15514136445198318,"273":0.10535168998467101,"274":-0.015431654687097084,"275":-0.03706578216931815,"276":-0.3158844420590988,"277":1.1625683425246849,"278":0.02255399489866871,"279":0.05497766932219752,"280":-0.06495868747597673,"281":0.027509352297072572,"282":-0.12778975921225713,"283":-0.16843552149410992,"284":1.4786086582879645,"285":0.20554926282302782,"286":0.058289481362000496,"287":0.040973714577402585,"288":-0.006679865687030067,"289":0.07344755548076622,"290":-0.13093136676631453,"291":1.3453076378727813,"292":-0.08900370016166662,"293":0.07201845071586363,"294":0.02968165927832727,"295":0.04866457644415558,"296":-0.2420325421353236,"297":-0.1543375784806439,"298":1.5725369410903456,"299":-0.024360638384535865,"300":-0.031628502865289586,"301":0.10035856385457544,"302":-0.049641508594119775,"303":-0.05126956055133243,"304":0.027001463182791664,"305":1.447831680059418,"306":0.07910939923520216,"307":-0.12025638537650231,"308":0.09409944508391592,"309":0.05207669726557929,"310":-0.077429100161567,"311":-0.40764357947891106,"312":1.359712257646003,"313":-0.008784137062648184,"314":-0.09995056878133436,"315":0.11041387183289089,"316":0.23281770987017966,"317":0.09694755470486378,"318":-1.257427205125997,"319":1.0143912141099096,"320":0.10619753317385072,"321":-0.002068210947335458,"322":0.031061730310145415,"323":0.14009367484328517,"324":0.046319873623380727,"325":-1.692329543606635,"326":1.0123532084033127,"327":-0.095470770168678,"328":0.019644366497956804,"329":-0.1360731813245415,"330":0.01537330014202224,"331":-0.12417735671472258,"332":-1.7643503499475621,"333":0.8355537577874441,"334":-0.13885668455291617,"335":0.09249841136031628,"336":-0.030444952407863525,"337":-0.05310850952927118,"338":0.08957022465129416,"339":0.015316324129916086,"340":0.8253887327809407,"341":-0.2047824376901442,"342":0.10969383956421333,"343":0.11855329169810196,"344":0.06245769034319486,"345":-0.13710851150395229,"346":0.050752593317538695,"347":0.33732569249230115,"348":0.006976269867170733,"349":-0.24683657339497247,"350":0.05284869348822277,"351":0.023704582734895004,"352":0.08036618514260915,"353":0.0364479716618499,"354":0.07957808227844435,"355":-0.04556670015795399,"356":-0.05815693492686014,"357":-0.029972114333201242,"358":-0.01591316771311582,"359":0.12684299544316263,"360":0.03854748934049029,"361":-0.024487796164521597,"362":-0.3544588261777211,"363":-0.017691822148918634,"364":-0.18818343709172564,"365":0.00037695634161953904,"366":0.07069201893120328,"367":-1.632523285085895,"368":0.3661820704370461,"369":-0.03852228536234086,"370":0.014568825938984023,"371":0.008614394338095325,"372":0.17051197617640038,"373":0.08525742961122974,"374":-1.6026139813775777,"375":-0.36568416198920134,"376":-0.12744850536090163,"377":-0.08869412458813308,"378":-0.03460554239439044,"379":-0.034381854788431164,"380":-0.03194632406401579,"381":-1.2399439134709282,"382":-0.26958717670018784,"383":-0.12366854314075536,"384":0.010403482897013185,"385":0.0462478512857738,"386":-0.05807407884372975,"387":0.07676795316555703,"388":-0.28781852058938856,"389":-0.49609566648530196,"390":-0.17239930682810803,"391":-0.035005886862465425,"392":0.1972501771931608,"393":-0.08161276820187124,"394":0.12455269580631421,"395":-0.19610208579962002,"396":-0.12537454034431775,"397":-0.22197542801914097,"398":-0.077796005119791,"399":-0.06949596936018866,"400":0.12280284979619258,"401":-0.0692293860913762,"402":-0.04537473781093912,"403":0.19150616423876698,"404":-0.06671576886704851,"405":0.1247022040987768,"406":-0.017875883213587282,"407":0.08695822597758647,"408":-0.07244442523531686,"409":-0.17778332698504637,"410":-0.017694308129518582,"411":-0.06856613846199416,"412":0.18430871075560334,"413":-0.055290473816432394,"414":-0.06608561979769548,"415":0.12189231821351035,"416":-0.3808195772563835,"417":-0.24596775248325572,"418":-0.0652486364528188,"419":0.07557568147261544}},{"sx":1,"sy":1,"depth":420,"w":{"0":0.006950140852543294,"1":0.004124031457602083,"2":-0.00023267039900282685,"3":0.0016304186696406216,"4":-0.0035718031949371273,"5":0.0051007238047298025,"6":0.002511815821167118,"7":-0.0003663621790899429,"8":-0.0060373257700087135,"9":0.005849657013244805,"10":-0.007611402797712467,"11":-0.005799591630181493,"12":-0.0011985572909102632,"13":-0.007191040443380617,"14":-0.0007313532799941106,"15":0.007693097896938298,"16":-0.005486191339851373,"17":0.0033394806450512894,"18":0.0045968940403871925,"19":-0.010627451747460907,"20":0.004263587127509336,"21":-0.005019965232773148,"22":-0.002766362707164912,"23":0.0014270952137407135,"24":-0.0015809325010231786,"25":0.0016673696745532214,"26":0.001425117250236895,"27":0.008208848792637115,"28":-0.007560311266320788,"29":-0.007060151695550143,"30":-0.004909099792391672,"31":0.0028750555588175713,"32":-0.003582832000490867,"33":0.001029448891072066,"34":0.0036965101964529716,"35":-0.00048499313393557896,"36":-0.009430965979656137,"37":0.005373748359079601,"38":-0.0018004104158198778,"39":0.0036846962163052405,"40":0.00008548988476889895,"41":-0.0026473748818374005,"42":-0.008242257565245827,"43":-0.0020184625255534067,"44":0.001439809387381662,"45":-0.005443446380208678,"46":0.0036433617709591584,"47":0.00047995300832982406,"48":-0.003290326891269588,"49":0.005114236879371664,"50":0.0004821427801446942,"51":-0.007723133238941711,"52":-0.007137636446086681,"53":0.0003009350211943993,"54":-0.0025997087165439067,"55":-0.0046079564393015715,"56":0.003999530771622646,"57":0.0016372429901390783,"58":-0.005629174319529736,"59":-0.003168485469032334,"60":0.003686200479381835,"61":-0.007633270150770698,"62":0.002874266926256385,"63":-0.003033185230493493,"64":-0.0005816526425223412,"65":0.010609363635612986,"66":-0.0008865748868900028,"67":-0.0009672231837774807,"68":0.007386087894678646,"69":0.0034123097373547832,"70":-0.0019194562698133404,"71":-0.0013005203806689244,"72":-0.0018463128780774913,"73":-0.0021071165450490953,"74":-0.0054906070121696115,"75":0.0022886663799268885,"76":-0.006828885723246086,"77":0.009353694861567383,"78":-0.0009074101095817084,"79":0.0059636914030374005,"80":0.0036209455181852707,"81":-0.007178876878488873,"82":-0.003448301160489069,"83":-0.003831260066869824,"84":-0.003112925469542367,"85":-0.007676313121114887,"86":0.010292332663078437,"87":0.005132104067418086,"88":-0.001563847240280819,"89":-0.003526232654879228,"90":0.003295681059779309,"91":0.003844471936977193,"92":0.004595194062825043,"93":0.004278751058087457,"94":-0.0020206736498648977,"95":0.007615195299792602,"96":0.0013530124279675713,"97":-0.007115739809412448,"98":0.0022796732748265086,"99":0.000375786502470481,"100":0.0006601963676825831,"101":-0.005137119795045174,"102":0.00644833943899071,"103":0.0029078125692472445,"104":-0.005019547670044756,"105":0.0037393307119791075,"106":-0.005483832581866889,"107":0.0008957139068708612,"108":0.0028583470422247643,"109":-0.004337543249054727,"110":-0.002524377247656957,"111":0.003457285587971868,"112":0.007886888562223663,"113":0.0034104466148870407,"114":0.008442408451542285,"115":-0.001337676264361436,"116":0.0015431384025345232,"117":-0.009058486824286909,"118":-0.0024731297418432376,"119":0.000053789799162803665,"120":-0.010243361817739424,"121":0.00005494092780677778,"122":-0.004861579300733785,"123":-0.00035293177904876144,"124":0.002090110367441973,"125":-0.00619305946859785,"126":0.00001686783413000924,"127":0.004783504630834058,"128":0.0030749234511939136,"129":-0.010960763423402136,"130":-0.008017880554779405,"131":-0.002158042350168744,"132":0.006721000733449234,"133":0.0031264332871128865,"134":0.001110579833151476,"135":-0.0054862345947121706,"136":-0.005212240808792723,"137":-0.0060534340172450525,"138":0.000429607289637293,"139":0.0024192062943907784,"140":-0.00866590533809046,"141":-0.006820807768978674,"142":-0.004557877515459951,"143":0.0015493845335768992,"144":0.0011236752918377833,"145":0.00033657715933531926,"146":0.0023702189117258627,"147":-0.0039626672055025755,"148":0.0035107692883896945,"149":0.010823418628671356,"150":0.002033940050425048,"151":-0.0006854541305197267,"152":-0.0008382511350256425,"153":-0.0011474026078285746,"154":0.004396858147267108,"155":0.010995935705001457,"156":0.00014221953307370127,"157":0.003329449166724969,"158":-0.003611485147205104,"159":-0.009738338266923156,"160":-0.0072528946864349715,"161":-0.0013843236536057462,"162":-0.0018586161513373992,"163":0.00677443793551355,"164":0.0026100210981947207,"165":-0.0018252645672584722,"166":-0.0040397094719619485,"167":0.0005038870943221658,"168":0.0006549503749212496,"169":-0.005755828861345078,"170":0.0004396355681937169,"171":0.0017477731639233807,"172":-0.0031612823862877336,"173":-0.004080675809458979,"174":-0.005744719365227068,"175":0.002468102545614088,"176":0.004044648512319119,"177":-0.0012196666636320119,"178":-0.005194787197055355,"179":-0.001315234094031969,"180":0.0017327199361319642,"181":-0.012382719136495784,"182":0.007872419880056193,"183":-0.0006616082340934881,"184":-0.002224556076356459,"185":0.00620840133966511,"186":-0.000683993092404928,"187":-0.00886956480815059,"188":0.003851997645483402,"189":0.0002687979885539044,"190":-0.0035488407288035238,"191":0.004268152676476822,"192":0.0009738799198083861,"193":-0.004329067393042758,"194":-0.0007298864868673287,"195":-0.00014986143289586292,"196":0.004582858505601828,"197":0.0009764960502294533,"198":-0.006373685140231656,"199":-0.004863702307814459,"200":-0.002873160221004585,"201":0.0008714938483343669,"202":-0.004558564188638092,"203":-0.00334699069182636,"204":-0.0021382848593151293,"205":-0.0015864224414741598,"206":-0.002146984404521863,"207":-0.0004997895518293916,"208":0.0016616218805824204,"209":-0.0009123431260729349,"210":-0.0032177350122039234,"211":-0.003011826574659867,"212":-0.0014824449215301238,"213":0.002265650975519766,"214":0.000003284587227827861,"215":-0.0056199927291779245,"216":-0.005553579446926603,"217":0.00003142997585440088,"218":-0.0017660958220159257,"219":-0.004726635253661717,"220":-0.007881891594688984,"221":-0.0025887141641686125,"222":0.005915209555973255,"223":-0.004224365416542179,"224":0.007145822802389423,"225":-0.002724062319519233,"226":0.006371945333204453,"227":0.0021144039445132657,"228":0.0025906996773500178,"229":0.0006936566358047362,"230":-0.005138737016901982,"231":0.002527789033539648,"232":0.0012166792535710106,"233":0.008103785342528978,"234":-0.0024394085753851303,"235":0.007059087748143843,"236":-0.0013844908177010524,"237":0.004028749440475154,"238":-0.004756844601557215,"239":0.004421987225946115,"240":0.003097865122125814,"241":0.006278924143229763,"242":0.0015115390315191355,"243":0.00003353980497897781,"244":-0.005201019299155217,"245":0.003987555205586011,"246":-0.0009840627766262993,"247":-0.00038120393183930037,"248":0.0011019471679449369,"249":-0.008337975104909889,"250":0.0032387677722479314,"251":-0.0028725403832497304,"252":-0.0005988880744374334,"253":0.002401275546153612,"254":-0.00890493454849311,"255":0.010799606784309093,"256":0.0015304805933910185,"257":-0.00038018812804992803,"258":-0.0016859711689916057,"259":-0.005890287925642871,"260":-0.007732039264036366,"261":0.0007405863503970502,"262":0.009247950903689578,"263":-0.004455682335678353,"264":0.00039335420618064894,"265":0.004194582201745121,"266":0.0020494247953240867,"267":-0.011700939571549326,"268":0.000175518845738334,"269":-0.002098376216255956,"270":0.006263735110057655,"271":-0.002295365196243456,"272":0.0008960502986586876,"273":0.0073685259079903,"274":-0.0059290142530154105,"275":-0.00016006509072922633,"276":-0.00496230283995907,"277":0.0015183012264300875,"278":0.005875274837229657,"279":-0.0011909440586203646,"280":-0.0027537067501798816,"281":-0.00439163883105444,"282":0.0002573089449104533,"283":-0.006572344986455828,"284":0.00032416066649370765,"285":-0.005644219854256211,"286":-0.00756115578752178,"287":-0.004750588628503865,"288":-0.004687592316121336,"289":0.004215783856385046,"290":-0.001673824191767472,"291":0.00252417072473529,"292":-0.004967489279134451,"293":-0.004295636690986119,"294":0.002397550958275368,"295":0.002165881065804569,"296":-0.000682485017656028,"297":0.0008378454170309361,"298":-0.007264567598048061,"299":0.0009730508623288714,"300":-0.00363421066318852,"301":0.004553934914728343,"302":-0.001876994514655249,"303":-0.002639602035786159,"304":-0.0006809590389513155,"305":0.0017141185566637402,"306":-0.0030940680999081284,"307":0.0025932577160131948,"308":-0.0010043433381372207,"309":0.0014320117929909318,"310":0.004297975841431125,"311":-0.002724626469301244,"312":0.0038236945534821285,"313":-0.0010153326711906674,"314":0.00011313191195315065,"315":0.003401030982339649,"316":0.0027103428484758652,"317":0.011510795827452777,"318":0.0029921780139098918,"319":-0.0016396936674054699,"320":0.0020660677956254566,"321":0.0013982103127613305,"322":-0.0023244668132790676,"323":0.0030917391211379504,"324":-0.0004992109851909872,"325":-0.007863989078109172,"326":-0.010278364072035952,"327":-0.0014578979422497844,"328":-0.006285120411480624,"329":0.003806347895728299,"330":-0.0027016735466211697,"331":-0.005756396849613535,"332":-0.007082059455014601,"333":-0.0022516547712619433,"334":-0.00045666294094916904,"335":0.006262829304142578,"336":-0.0023403995311719393,"337":-0.00437155356940349,"338":0.0004007944168601072,"339":0.001640972299292257,"340":0.0012516186624035805,"341":-0.0036514067311782684,"342":-0.0038743682387561737,"343":0.002459400177411886,"344":-0.0012487519557310477,"345":-0.01248192552775015,"346":-0.00010069716421316606,"347":0.00328776760288762,"348":0.007883837710708705,"349":-0.0056442441331235734,"350":0.006237988913122226,"351":-0.003559392979905266,"352":-0.009311274295082663,"353":-0.012562561667790231,"354":0.005124908856396612,"355":0.008151873002154824,"356":-0.005118810257939561,"357":-0.0023320418760244353,"358":-0.005451285443058324,"359":0.001601222563991075,"360":0.0016798383462977688,"361":-0.004296198336474127,"362":0.0013112061001633785,"363":-0.0037407458728563286,"364":0.00005808194478771477,"365":-0.006664633734985418,"366":-0.0023241006173983186,"367":-0.005365565994851354,"368":-0.0037444870047854705,"369":-0.0003698549734591641,"370":0.002116749800987298,"371":-0.0035004814849476503,"372":-0.0034570454841921917,"373":0.001602116259546046,"374":-0.010870129735180227,"375":-0.0021866048260699767,"376":-0.0031022777540033754,"377":-0.006087589142436494,"378":-0.0005583235008651307,"379":-0.0025128883695508027,"380":-0.004172271303700268,"381":0.0007320846756022324,"382":0.0005178127906854836,"383":0.001121770267823715,"384":-0.001339001547687782,"385":0.008114557899340171,"386":0.002280996331232558,"387":-0.008119160783714075,"388":-0.008955318469066845,"389":-0.00006040764903239356,"390":0.006228578996333416,"391":0.0017783861041532738,"392":-0.00969066241964378,"393":0.0008324264562897131,"394":0.004494713761174437,"395":-0.0021259069934674245,"396":-0.0019870372616512537,"397":-0.002870208551170722,"398":0.0007114095730500386,"399":-0.004810482900554918,"400":-0.00964004693616469,"401":0.001522541356155502,"402":0.0024849654340627445,"403":0.0017886596771027068,"404":0.000972383575168925,"405":-0.007675222477155937,"406":-0.0027669487322013555,"407":-0.002704238907146326,"408":-0.00045393584334829613,"409":-0.006154573789631149,"410":-0.0023253951902000043,"411":0.002064860835051265,"412":-0.00354570196398089,"413":0.0007275557040675101,"414":0.011606153620014615,"415":-0.0003625600037612573,"416":0.0054048288348766205,"417":0.00883812484554415,"418":-0.00023386342041574145,"419":-0.00009064216808193462}},{"sx":1,"sy":1,"depth":420,"w":{"0":-0.015956642161537905,"1":-0.056183116827576436,"2":-0.047419970436235005,"3":-0.0388377514667806,"4":0.07029104862761927,"5":-0.1123281218140791,"6":0.11283146203619787,"7":0.006930112975742068,"8":0.00466294892802395,"9":-0.13864359449349098,"10":0.019934472701493112,"11":0.045205749340560486,"12":0.11110960270849603,"13":-0.018821365499784443,"14":-0.04172623724520613,"15":0.050425877735835116,"16":-0.1460020096301901,"17":0.07258261464841419,"18":0.04120736845869007,"19":-0.06136385219260164,"20":-0.09419730075519575,"21":-0.12088578802145876,"22":0.017854695840728144,"23":-0.07282120673885711,"24":0.26341428869028477,"25":0.033110904606584876,"26":-0.11514194533866944,"27":-0.058448874871560016,"28":0.049357550295168084,"29":0.07380948606913518,"30":-0.09351292662141046,"31":0.07959329052726245,"32":-0.11800093054825342,"33":-0.10171152841367037,"34":-0.17256477727671404,"35":-0.08715146072518822,"36":0.26988875216045305,"37":0.07052771732400641,"38":0.1627747570802519,"39":0.014950443092870757,"40":-0.06083702640147957,"41":-0.03794332177185798,"42":0.016436010811030504,"43":0.05282319042618001,"44":0.09292451126160453,"45":0.35165368278173015,"46":0.07587294781630487,"47":0.01699019665330362,"48":-0.03292540762200434,"49":0.1635578937332857,"50":0.0810999918203411,"51":0.10594032179607552,"52":0.13336216916163512,"53":-0.0069665280442042276,"54":0.09297337900369047,"55":-0.14618471267469274,"56":0.04530802161828049,"57":0.2476217555790691,"58":0.04021216471134903,"59":0.05606697735807899,"60":0.019674731346448385,"61":0.15461615947789073,"62":-0.14424012858158378,"63":0.06444597843094424,"64":0.16775233712564888,"65":0.07295269610746026,"66":0.07123342753782524,"67":-0.0655984638592295,"68":0.08605984279616319,"69":-0.19108095223268856,"70":0.2727525391110096,"71":0.16950571555808053,"72":0.2262802600471356,"73":-0.11714582161076359,"74":-0.038681237744221206,"75":0.16022575523630442,"76":-0.13203282357003,"77":-0.11084601180467749,"78":0.1418285971622968,"79":0.09130525124822848,"80":0.03618634335483067,"81":0.05670454356553254,"82":-0.02452890791641635,"83":-0.16215722276972463,"84":-0.03835259242685882,"85":0.09922797829779868,"86":0.22171514478670834,"87":0.3007185283614422,"88":0.06824366848207927,"89":0.0305166076665539,"90":-0.1890885697197202,"91":0.15712286685544644,"92":-0.05788971678673572,"93":0.2613366702319584,"94":0.10990925365690707,"95":0.012564341132523681,"96":-0.11896273556817505,"97":-0.1997644166030413,"98":-0.12908735165427448,"99":0.0864021677702452,"100":-0.02104409819981692,"101":0.3966572633963269,"102":-0.04508420476597145,"103":-0.2420345839917984,"104":-0.17577729846423878,"105":0.09237028343499434,"106":0.0746376415891675,"107":0.0048385349074272594,"108":0.5037735854407214,"109":0.04509359754495285,"110":0.036573599015474946,"111":-0.16043447637046784,"112":-0.05099079086215545,"113":-0.108829984914771,"114":-0.009593170325495993,"115":0.3032338961967173,"116":-0.06083857514330045,"117":-0.0894269913447476,"118":-0.15500000444357986,"119":0.2103420743079648,"120":-0.11349188059496296,"121":-0.0423554169105877,"122":0.20258748707292284,"123":-0.0836497631851135,"124":0.15028951026287002,"125":-0.040297421751216575,"126":0.15011292270471546,"127":-0.16078446478295694,"128":0.15155403775912332,"129":0.0636122017707296,"130":-0.11951266004237537,"131":0.14276967025200057,"132":-0.14910299944204805,"133":0.08440447596236356,"134":-0.16592327031975712,"135":0.10616673019135431,"136":-0.12063385657305109,"137":-0.17802186169900008,"138":0.007555201330290037,"139":-0.04946677734950561,"140":0.33113550320166335,"141":0.10335396188269566,"142":0.06532224507160582,"143":0.15390909218444865,"144":-0.06319245183674864,"145":-0.0009346394347302473,"146":-0.09211585170794807,"147":0.07727202352896237,"148":0.15642569853177424,"149":0.02760991292503911,"150":0.03580542526183064,"151":0.12059022357225357,"152":-0.11107779920572257,"153":-0.18991939010323963,"154":0.07985385002145422,"155":-0.04794179442213922,"156":-0.02236308880566837,"157":-0.04748759708886155,"158":0.24561201139235594,"159":0.018191403746540408,"160":-0.12615496446133753,"161":-0.12835630288986935,"162":0.03485602957094435,"163":0.10831297791846349,"164":0.07155325348770128,"165":0.0036390125779045767,"166":0.05412301873491961,"167":-0.004864780628124625,"168":-0.03923880026733884,"169":-0.08077668163349223,"170":0.18732148774013624,"171":-0.0438429552048719,"172":0.029571294162781384,"173":0.13849332291438496,"174":0.006753091076558596,"175":-0.19153405781865648,"176":-0.014907599128606444,"177":0.0850740020471316,"178":0.39833252435707744,"179":0.035090093191070454,"180":0.19798282912011078,"181":0.09900686003342304,"182":-0.0030593435021537487,"183":0.13754334900172627,"184":0.18115745280740478,"185":0.4245206283522502,"186":-0.009509684554273187,"187":0.24703370613333797,"188":0.1674754919424371,"189":0.1642398899039632,"190":0.12283155699306146,"191":0.1171117737608596,"192":0.4072343546130376,"193":0.18988399574789636,"194":0.10637604847415982,"195":0.0020081593479987737,"196":0.007263587027070785,"197":0.06891219563142763,"198":0.006631296987475,"199":0.28886468957794226,"200":0.06777851825545426,"201":0.13275211377745955,"202":0.08515997738391044,"203":0.13873578151322905,"204":0.1331787779064768,"205":-0.014907304197325187,"206":0.14295936547891963,"207":-0.08214695025553122,"208":0.1518946589224752,"209":0.032681844210034214,"210":0.016062913498195986,"211":0.19537286929373246,"212":-0.03192979680769743,"213":0.06185789369925675,"214":-0.150556713494009,"215":0.24327127970972096,"216":-0.07125222808980748,"217":0.17171781770363076,"218":0.17746221372734608,"219":-0.08626154058386348,"220":0.0842315036168427,"221":-0.282245891115736,"222":0.288220154656049,"223":-0.054993408765951456,"224":0.09082860829099416,"225":0.15357167261361993,"226":-0.022503221971241126,"227":0.14968899814380962,"228":-0.23873155078440064,"229":0.2743058819280621,"230":0.021859166918407193,"231":-0.06020738300109828,"232":0.1352214130790315,"233":0.030622398284460183,"234":-0.04154646651887662,"235":0.04797940299309397,"236":0.3315634857872054,"237":0.12207840673715836,"238":-0.21397198990217828,"239":-0.07607214006780437,"240":0.18252797476054233,"241":0.0512867356404339,"242":0.24326824125036728,"243":0.2943589767044904,"244":0.2831703503005118,"245":-0.26006769305140537,"246":-0.14527831428331667,"247":0.09821551461657212,"248":-0.023009675668635453,"249":0.22395049448539178,"250":0.21747030853771007,"251":0.07643121205772171,"252":-0.10207863673420274,"253":-0.06442488677236358,"254":0.11901034236394999,"255":-0.02860044203487765,"256":0.11978220260518532,"257":0.1818037759060806,"258":0.011912233126952627,"259":0.004208437175748889,"260":-0.17007697158290908,"261":0.17549088205229105,"262":0.1738402732979831,"263":0.026269787077331894,"264":0.18993448136547603,"265":0.09234275775255128,"266":0.10645148109780558,"267":-0.08281041160790897,"268":0.07191943081108089,"269":0.23634700543214004,"270":0.06422213254905405,"271":0.17101062478236495,"272":-0.02157081827497285,"273":0.3109016315505496,"274":0.09009060963335587,"275":-0.022241839696369524,"276":0.10822876947196607,"277":-0.14497899613980053,"278":0.15942090460858374,"279":0.10832164565151028,"280":0.07158091693488926,"281":0.17736516589122034,"282":-0.11313222419751301,"283":-0.2278018953184389,"284":-0.15014540709041807,"285":0.22891856325810855,"286":-0.023399592981902254,"287":-0.028722615203530585,"288":0.13496375174736844,"289":0.17343047407745105,"290":-0.09341017237106637,"291":-0.22558094845534096,"292":-0.02713938619534802,"293":-0.08588681741512691,"294":-0.028378920550140196,"295":0.015041097554110622,"296":0.1619832677032771,"297":-0.24516653789932583,"298":-0.3510989455014876,"299":0.018555158649165102,"300":-0.06390787745179843,"301":-0.2589236469751736,"302":-0.09405750714274169,"303":0.16670788874327433,"304":-0.07348385450519523,"305":-0.10908310929614186,"306":0.04471935836662526,"307":-0.05732088659647102,"308":-0.14298691340842407,"309":-0.19195338957299823,"310":0.09940558646821127,"311":0.3833864628162453,"312":-0.05698606468895238,"313":-0.11071992174475048,"314":0.08423693899661575,"315":0.047823527048819696,"316":-0.28481171792140847,"317":-0.06505706023537565,"318":0.26342314017787494,"319":0.03920915104521313,"320":-0.04824967267405631,"321":0.16569179511369028,"322":-0.06328500830683527,"323":-0.16722936629814825,"324":-0.21934775589930205,"325":0.43144344262101636,"326":-0.16747364796533512,"327":-0.15066701488442208,"328":0.028524390752312077,"329":0.022856124340448505,"330":-0.13490412774681862,"331":-0.10015123199735372,"332":0.4240872985183414,"333":-0.169840186722222,"334":-0.07682042750313123,"335":-0.007291170777553558,"336":0.061716433070853116,"337":-0.16483454708135303,"338":-0.31045264456934213,"339":-0.41034821918413805,"340":-0.19034842109706335,"341":-0.0862614756304101,"342":-0.013580453891519626,"343":-0.2676905504207543,"344":-0.21866604561406564,"345":-0.2795599331211357,"346":-0.337894689920497,"347":-0.177477406069474,"348":0.007929655812161708,"349":-0.17735838668470671,"350":-0.13637712182538664,"351":-0.28885843040448805,"352":-0.17789148573700905,"353":-0.38450568493608356,"354":-0.0740299492749017,"355":0.004345866636427496,"356":-0.12629252959735324,"357":-0.09818108906569914,"358":-0.009489910735992044,"359":-0.5244347310320954,"360":-0.4356034676751704,"361":-0.0026442609399956606,"362":0.09627996350670752,"363":0.031099083906054252,"364":-0.07317602589871844,"365":-0.2553300204882424,"366":-0.7023393186080646,"367":0.3349335914017235,"368":-0.28924602811841943,"369":0.13138766115509667,"370":0.07600405632084323,"371":-0.010137671653607318,"372":0.08585261393662028,"373":-0.308020105056808,"374":0.29099946529157245,"375":-0.11979555543269263,"376":0.04708385870074108,"377":0.06558832994605064,"378":-0.057537023860482345,"379":-0.0025874188128836685,"380":-0.4844546522062189,"381":0.11505869331545751,"382":-0.12003604460424436,"383":0.053843240802148265,"384":0.1276910494847539,"385":0.0515309402698755,"386":-0.2369464370325726,"387":-0.3661782460332465,"388":-0.23536310644476002,"389":-0.47224658901637445,"390":0.06797667677371583,"391":0.13679990459647107,"392":0.03172070884397746,"393":-0.07378013098434932,"394":-0.23176942035270784,"395":-0.08753324430185569,"396":-0.4171665705640079,"397":-0.11821456951020609,"398":-0.061083358681397304,"399":-0.013750890558624924,"400":-0.0571299672283642,"401":-0.4597265745813261,"402":-0.255070763864833,"403":-0.4368187847754746,"404":0.06508554017438206,"405":0.019808437560977846,"406":0.14334349817495026,"407":0.009763778564830402,"408":-0.2959661954433178,"409":-0.3616935296516284,"410":-0.32955565845069573,"411":0.21980387224561387,"412":0.01764360894126091,"413":-0.02653991835284907,"414":-0.05178343662802508,"415":-0.022996605197456377,"416":-0.08637833523889125,"417":-0.21301993699013755,"418":0.3477550322913459,"419":0.10709266563354784}},{"sx":1,"sy":1,"depth":420,"w":{"0":-0.007390975313780058,"1":-0.008637973426923863,"2":-0.07968948004940225,"3":-0.027873612239101748,"4":0.051282008781994196,"5":-0.08690625749954085,"6":-0.07179105776462065,"7":-0.012600412574084629,"8":-0.008312097016187583,"9":-0.07704739011731493,"10":-0.05808131595258253,"11":-0.09206462972288673,"12":-0.004647771503999987,"13":0.042658674612526926,"14":-0.0008831713048400977,"15":-0.01101880652035346,"16":-0.1017204476070832,"17":0.028380402948193686,"18":-0.08161179112449657,"19":-0.051914827840404645,"20":-0.06069156817876558,"21":-0.0026477463600708077,"22":-0.012024585644386802,"23":-0.10271335442985159,"24":0.055304188180653684,"25":-0.19312937738056557,"26":0.0939541423737649,"27":-0.040456500222866836,"28":-0.0003781394517449004,"29":-0.0076018087212960704,"30":-0.08301819246947216,"31":0.15610746947544332,"32":-0.10652011354015944,"33":0.05876329416317487,"34":0.08069871414261151,"35":-0.002193275526176346,"36":-0.008460080311690182,"37":-0.08185727308023062,"38":0.1310780942286917,"39":-0.08136184341658215,"40":0.0610216222753726,"41":-0.008520795022789494,"42":-0.004253073030081061,"43":-0.004782601248643945,"44":-0.07568976832151646,"45":0.07252867973865962,"46":-0.006193105469152691,"47":0.09428156742273755,"48":0.07899024145447425,"49":-0.005828352771895618,"50":0.000619801005072093,"51":-0.07349952923693283,"52":0.19415403194019154,"53":0.05563744059929967,"54":0.025866801226022185,"55":0.1500791562504772,"56":-0.009572523792479063,"57":-0.01080803778428668,"58":-0.08820949566817128,"59":0.06991464999486688,"60":0.18997469723030763,"61":0.08851474425959224,"62":0.15586230157462597,"63":-0.012843444724750304,"64":-0.003469219681219107,"65":-0.08905368878594488,"66":0.0615060681620875,"67":0.14524577167969008,"68":-0.07340892564453667,"69":0.09297197527335764,"70":-0.0022787967326428436,"71":-0.012941460388761624,"72":-0.08450456555705951,"73":0.059071095435433985,"74":0.04861938997709664,"75":-0.037527564051495446,"76":0.1189276055617873,"77":0.0019939867995059316,"78":-0.020805109418502846,"79":-0.08653495174291424,"80":-0.10183472671240823,"81":0.039582759888697035,"82":-0.045169915493498934,"83":0.06961266878715938,"84":-0.0042738755166946115,"85":-0.011628819429660094,"86":-0.07882868565754178,"87":-0.00669065477861141,"88":-0.007411631968364334,"89":-0.014730586269777258,"90":-0.02991595841316053,"91":0.002990786142766998,"92":-0.02118130785053984,"93":-0.08940910738022466,"94":-0.013771663734555397,"95":0.05764175346789971,"96":0.060568982412918325,"97":-0.00560504611509733,"98":0.0028274102230294606,"99":-0.016704816924100894,"100":-0.0932323641641161,"101":0.06826334963021188,"102":0.10163895872350422,"103":-0.007430065973371532,"104":-0.008526975387953408,"105":-0.0003039189716897404,"106":-0.006588969210505922,"107":-0.09265587890351808,"108":0.17198618193386306,"109":0.18105058743785823,"110":-0.04433899870129695,"111":-0.00818238583041797,"112":0.0067732232898843345,"113":-0.00008233833762127906,"114":-0.10766482861424674,"115":0.21977871054058362,"116":0.07876158829945765,"117":0.01189051198877069,"118":0.012380814185078727,"119":0.007703945768708547,"120":-0.00888002489720195,"121":-0.09884250752787034,"122":0.16341099799200315,"123":0.0609193927666736,"124":0.0568733026393355,"125":0.01612759371978572,"126":-0.01461048457159148,"127":-0.0051051122482585086,"128":-0.0848828832328286,"129":0.12568477282596413,"130":0.11052762730370252,"131":0.057202926690715014,"132":-0.05432854618617146,"133":-0.003679278228720132,"134":-0.012568786386267154,"135":-0.07683456922366631,"136":0.09263222953466442,"137":0.1893748332696138,"138":0.21296540329625574,"139":0.008029890674174393,"140":0.002314548582698162,"141":-0.009008225090606519,"142":-0.0755220321776381,"143":0.12494857216742472,"144":0.20389677671717954,"145":0.11779370397680729,"146":0.007480471378866526,"147":0.0009196328784701575,"148":-0.005964086227768961,"149":-0.09387577900319044,"150":0.09772025670169528,"151":0.13211322417353236,"152":0.09870865391476834,"153":0.1448515899377486,"154":-0.0005079437853941925,"155":-0.013324001514930947,"156":-0.09246690395915365,"157":-0.019799551933329176,"158":0.0967766898105703,"159":0.10095673519799665,"160":0.2733425734851252,"161":-0.010903806209803496,"162":-0.013088663899762017,"163":-0.09530722354064423,"164":-0.02440028267791128,"165":0.06851400745884183,"166":-0.013217593718670418,"167":0.0913664114266187,"168":-0.012496933623584708,"169":-0.022125319419549302,"170":-0.10126196463508737,"171":-0.09583403678105117,"172":0.09899837339943626,"173":0.02146471544036885,"174":0.11140874475270489,"175":-0.005307210746791015,"176":-0.004445055357191912,"177":-0.07442797932914984,"178":-0.07929535470006716,"179":0.07325711607189594,"180":0.039554976782804604,"181":0.019629836199170844,"182":-0.016412215021115978,"183":-0.013557196969455846,"184":-0.082791236223717,"185":-0.012367939667715268,"186":0.12303075623506539,"187":0.09949304354765082,"188":0.05266869902804322,"189":-0.006572056241196659,"190":0.0003990839875844477,"191":-0.0939044594379664,"192":0.09086106464462816,"193":-0.003747059324663837,"194":-0.0009950564432885706,"195":-0.016921087062693064,"196":-0.00339820233982145,"197":-0.011724388165064145,"198":-0.08914919994924575,"199":0.04785709973417388,"200":0.07507275790953874,"201":-0.04172454321965893,"202":0.0038764976731068827,"203":-0.003874614824821503,"204":-0.003599541591537803,"205":-0.09246524633835246,"206":0.12008332498770463,"207":0.10720897522853835,"208":-0.06664955694922185,"209":-0.022521925712075182,"210":-0.002665030555021946,"211":0.00043173781232073603,"212":-0.08720603327091626,"213":0.12371100090007901,"214":0.09233131129345891,"215":-0.09237048920217422,"216":-0.06533044009609217,"217":-0.010322343822534753,"218":-0.020271461110566654,"219":-0.07809043369359377,"220":0.08959808799362935,"221":0.04728396938067432,"222":-0.011051296994977543,"223":-0.044684258619250065,"224":-0.004705338867069576,"225":-0.019394646561967693,"226":-0.07996844637863901,"227":0.12530051164947825,"228":0.00904166190781215,"229":0.08620329569488296,"230":-0.07762863433150931,"231":-0.0004859898599689022,"232":-0.014946267946976736,"233":-0.07845501089419844,"234":0.009274455092806722,"235":-0.10501973424821277,"236":0.18344471435676798,"237":-0.07871856888577533,"238":-0.0012213806081501368,"239":-0.009624671456112465,"240":-0.07363643525471937,"241":0.2730625277330788,"242":0.04700469616330344,"243":0.03149054646816278,"244":-0.2523978417640638,"245":0.01299309844933639,"246":-0.017834428199217392,"247":-0.07044183610527521,"248":0.22209399086204692,"249":-0.02864584797332307,"250":0.04027295184971215,"251":-0.13670578337406364,"252":0.0019184158450577993,"253":-0.007800497931148779,"254":-0.07613534925166733,"255":0.1535174652374536,"256":-0.034115152430277934,"257":0.005412174837173707,"258":-0.10263665807990971,"259":0.0025766100499519965,"260":-0.006451085894596898,"261":-0.06893023137450094,"262":0.18323417407049314,"263":-0.015414228527531685,"264":-0.0904540214887704,"265":-0.12548803214612123,"266":-0.00733949651534755,"267":-0.006301700651468862,"268":-0.08471677729923875,"269":-0.1058438999012743,"270":-0.13681018637454753,"271":0.0681262180026722,"272":-0.047866374609304305,"273":-0.001964732551149696,"274":-0.0018855114355415528,"275":-0.07305714059449821,"276":-0.024465938871088756,"277":0.08252805716999777,"278":0.11117437223673086,"279":-0.07036429127309063,"280":-0.012130630280959289,"281":-0.013084808573065257,"282":-0.0704327834381199,"283":0.053394498469837154,"284":-0.0660535041739156,"285":-0.04668160050571812,"286":-0.25163954732331134,"287":-0.008848028309490748,"288":-0.012354405066022076,"289":-0.06292115861556229,"290":0.07316903327272344,"291":-0.01976882317701701,"292":-0.09166308327754899,"293":-0.1694613205310964,"294":-0.00377240949853924,"295":-0.00498530324374414,"296":-0.09191963594462488,"297":0.11162016003038318,"298":-0.1673379036680255,"299":-0.06761437997056237,"300":-0.12379033532614739,"301":0.0028484060800321918,"302":-0.006188954328328913,"303":-0.07326595594172786,"304":0.03000235863306768,